<?xml version="1.0"?>
<opencv_storage>
<my_nn type_id="opencv-ml-ann-mlp">
  <layer_sizes type_id="opencv-matrix">
    <rows>1</rows>
    <cols>2</cols>
    <dt>i</dt>
    <data>
      372 20</data></layer_sizes>
  <activation_function>SIGMOID_SYM</activation_function>
  <f_param1>6.6666666666666663e-001</f_param1>
  <f_param2>1.7159000000000000e+000</f_param2>
  <min_val>-9.4999999999999996e-001</min_val>
  <max_val>9.4999999999999996e-001</max_val>
  <min_val1>-9.7999999999999998e-001</min_val1>
  <max_val1>9.7999999999999998e-001</max_val1>
  <training_params>
    <train_method>BACKPROP</train_method>
    <dw_scale>1.0000000000000001e-001</dw_scale>
    <moment_scale>1.0000000000000001e-001</moment_scale>
    <term_criteria><epsilon>1.1920928955078125e-007</epsilon>
      <iterations>100</iterations></term_criteria></training_params>
  <input_scale>
    6.7219960795101500e+001 -2.1997727294875463e-001
    1.3767701901675466e+002 -2.3321822404051878e-001
    7.9806230374755302e+001 -2.5252309410288643e-001
    9.1375334272047809e+001 -2.9468250517788225e-001
    7.5272438912064757e+001 -2.6409815343707693e-001
    7.6983586557268168e+001 -3.1749668065005426e-001
    5.8386762427310686e+001 -3.5342339390030197e-001
    1.3393361144113723e+002 -3.4371328702410103e-001
    8.4780772818044071e+001 -3.6369453288687736e-001
    9.5296479919629519e+001 -3.2460593875313110e-001
    1.3396061811968315e+002 -2.6394403715837345e-001
    1.4643391738628387e+002 -2.3694445506298586e-001
    1.6364187090388472e+002 -2.5539688679260159e-001
    1.3897337064944011e+002 -2.5184175756147392e-001
    1.5136362513470687e+002 -2.1511323451270581e-001
    1.0295205214098375e+002 -3.1570837858987710e-001
    9.2644900920375179e+001 -2.4643114315393522e-001
    6.1809072524232242e+001 -3.5624033978890102e-001
    1.0548340421318099e+002 -2.8267851102554453e-001
    6.0009886132310484e+001 -3.6568959981777488e-001
    1.4188764999539060e+002 -2.4534156824393016e-001
    9.1927287091590344e+001 -2.4912961124536492e-001
    7.6974067367927915e+001 -1.9418128778481808e-001
    8.4886332726177500e+001 -3.1736710028600545e-001
    1.7484575859665955e+002 -2.2645557079633127e-001
    8.5245787484563195e+001 -2.7379488547782693e-001
    3.7624727184854157e+002 -1.8456946806666311e-001
    1.6164709130409810e+002 -2.7496628600278744e-001
    1.9221281734345339e+002 -2.5262469805811494e-001
    2.2174838466600866e+002 -2.2147224416528641e-001
    1.4407802754100712e+002 -2.5533755290830024e-001
    8.2464487317435299e+001 -3.2871458120091285e-001
    8.1675680199714861e+001 -3.2183746052190121e-001
    7.7468884556976960e+001 -3.1562604043048176e-001
    1.1258936163733249e+002 -2.3927623031379314e-001
    1.0418100319911325e+002 -2.9388305134169979e-001
    2.1088577771528286e+001 -4.3908657233443338e-001
    1.5355682533741603e+002 -2.5058343672701588e-001
    9.1230021029248675e+001 -3.4431680526293473e-001
    1.4990274755493354e+002 -2.1884577800208141e-001
    6.6105034963928560e+001 -4.1454295813632935e-001
    1.2950492596757502e+002 -3.1080295853418088e-001
    8.7105607115936564e+001 -2.6130046706780241e-001
    1.3122263365853192e+002 -2.6691581902678241e-001
    1.3850539649549825e+002 -2.6538563744473420e-001
    6.7713001719355276e+001 -3.4803463284928554e-001
    9.1930398148269973e+001 -3.7575463321885438e-001
    8.6986913896972993e+001 -3.0210565267653294e-001
    1.7652786812836510e+002 -2.6498204606004749e-001
    8.7746547389096008e+001 -2.9261773622482240e-001
    1.4430969516112827e+002 -2.3664793109234547e-001
    1.2526847218611749e+002 -2.4147383869296099e-001
    1.6228046114646577e+002 -2.5323865119148647e-001
    3.8597328060736174e+001 -4.3577537256848087e-001
    1.0378570967005081e+002 -2.2187720079055157e-001
    9.4717967259994495e+001 -2.7667111968886898e-001
    8.6314568113986226e+001 -2.8000457232178416e-001
    3.4713938986188786e+001 -2.6378461934100095e-001
    1.8510879398705111e+002 -2.3943800803909657e-001
    1.8105628786437694e+002 -2.5007373796383792e-001
    1.0552654776636369e+002 -2.0859398997490058e-001
    2.2992631296798464e+002 -2.2858688648182529e-001
    6.8214759235998713e+001 -2.9557410184038635e-001
    1.0498093469876524e+002 -2.4878653072577103e-001
    2.4122544715220266e+002 -2.0734689777116122e-001
    1.1017041950271879e+002 -2.5319495053782332e-001
    1.0357357737375084e+002 -3.5991544671805825e-001
    1.1583411040641103e+002 -2.3724319357487525e-001
    6.4404256039540755e+001 -2.0935345189540999e-001
    1.7868649604873286e+002 -2.2368033615329475e-001
    1.7446245230575576e+002 -2.2848705699687885e-001
    3.9564184712568868e+002 -1.6928013764901007e-001
    2.0087402018242690e+002 -2.1433739165972762e-001
    1.4386778344451054e+002 -2.3186390942332277e-001
    6.0888255354893914e+001 -3.8745292993398345e-001
    9.5015854107868478e+001 -3.2734209124642127e-001
    1.1258683488293502e+002 -3.2318861102195223e-001
    1.1959092006488594e+002 -1.9821933598411717e-001
    8.2073627607483985e+001 -3.1216145732287504e-001
    1.2729232892933565e+002 -3.0421977774756553e-001
    1.8253898134829649e+002 -2.3661134635364092e-001
    5.0873590798578988e+001 -3.7439403948821876e-001
    2.3666303567055670e+002 -2.4064232755313866e-001
    6.0238438767799373e+001 -2.5888834152530699e-001
    1.4563492457223398e+002 -2.3094626969273507e-001
    1.7025037190810841e+002 -2.6767823658297890e-001
    2.2655703377087298e+002 -2.1273371197426691e-001
    4.0762887836582145e+001 -4.2316280853778304e-001
    2.3699271648195409e+002 -2.5008466060437379e-001
    1.5539453674696500e+002 -2.8312162422358250e-001
    1.2538321833986703e+002 -1.9015237580214292e-001
    5.3970395745968901e+001 -3.0412805330351650e-001
    4.1242167359575922e+002 -1.6572220654310341e-001
    1.2670640746798175e+002 -2.3639307424282238e-001
    2.7571158119859052e+002 -1.9756616122285586e-001
    2.3545486867854041e+001 -4.5831562954715849e-001
    1.2231989921669141e+002 -3.0789654179268439e-001
    1.5479113677324457e+002 -2.2011882578891909e-001
    1.6105732057940048e+002 -2.8536272449420946e-001
    8.6399376027010689e+001 -3.5864293451917839e-001
    9.7021665660287624e+001 -2.4090367524527054e-001
    8.0021766564159009e+001 -3.4974219864561445e-001
    1.0663202913807129e+002 -2.7707058207763130e-001
    1.5366943885617712e+002 -2.3093594843634957e-001
    1.6305319862846966e+002 -2.7983324929134373e-001
    1.7939189879512435e+002 -2.7422708987223271e-001
    8.8358497652542511e+001 -3.2825093578492959e-001
    3.4812200216317586e+002 -1.9054332742426500e-001
    8.7159249765763363e+001 -2.7109983615355149e-001
    1.0813551466322730e+002 -2.4625547059523553e-001
    1.2855503830788189e+002 -2.6006368585457029e-001
    1.1467317783167751e+002 -3.1691902029089525e-001
    2.2765880717451009e+002 -2.1580311204442387e-001
    9.9861386806682560e+001 -2.8549744181247977e-001
    7.7511406954076108e+001 -3.1376584692597903e-001
    9.4303652227370691e+001 -2.1998278249227177e-001
    1.2272475246414984e+002 -2.8952945533046531e-001
    9.5104101842795586e+001 -2.6935758070688093e-001
    1.5340640652842583e+002 -2.1590371947940104e-001
    5.3974383298481484e+001 -2.7709664128453776e-001
    7.8985050800327372e+001 -2.5443860089473663e-001
    8.0892532840708043e+001 -3.1565956206500956e-001
    2.4410096720455775e+002 -1.8030148764296502e-001
    1.0243431848958410e+002 -1.6890981173791120e-001
    2.3496287686294608e+002 -2.1204779707555868e-001
    1.4426020005498336e+002 -2.5545873351975967e-001
    1.0110612881563813e+002 -3.2914163823742687e-001
    3.0058025646210206e+002 -2.1051661336163077e-001
    1.8109050985754376e+002 -2.5108053707448291e-001
    1.8201420257307254e+002 -2.2664443898231756e-001
    1.1145029575994215e+002 -3.1087806042689553e-001
    1.1997737745401137e+002 -2.8307307491732309e-001
    1.3912598709592683e+002 -2.3763305766293033e-001
    1.2868302064983811e+002 -2.3885227187940855e-001
    5.9808902868865488e+001 -2.7255401020228076e-001
    1.2215996089621309e+002 -2.8001864875503996e-001
    1.3275513373631355e+002 -2.7229063313994400e-001
    1.0167559871250623e+002 -1.5822373991662111e-001
    9.9590494259490498e+001 -2.9547316148333952e-001
    2.8667997641092120e+002 -1.7523113785228964e-001
    1.3338181303609622e+002 -2.3986854552252934e-001
    8.1821752849412420e+001 -3.3743149007795981e-001
    1.2909467444272622e+002 -2.5243582011481613e-001
    1.4337032741447953e+002 -2.6041010685008720e-001
    1.2455948221549949e+002 -2.7372875646030032e-001
    8.1833655010323454e+001 -3.7082602637798268e-001
    7.3655224450397881e+001 -3.0435520416902145e-001
    9.9092911753446970e+001 -2.3892319400807743e-001
    4.0519523530175474e+002 -1.7898985393414615e-001
    1.7795633661471064e+002 -2.6071557099890524e-001
    2.3440926069660370e+002 -2.2595646963717997e-001
    1.8962546949486912e+002 -2.3635864094315831e-001
    1.2087541396593782e+002 -2.3557476859900520e-001
    1.2943782158632246e+002 -2.5595134729661417e-001
    9.9163855556073500e+001 -2.5847860116640975e-001
    1.2272156726904396e+002 -2.4710273646880951e-001
    8.0430880016453244e+001 -2.7083477763345259e-001
    4.5644772594746073e+001 -4.3446339507274867e-001
    1.5098079773174700e+002 -2.4464462640736453e-001
    1.1755134753449229e+002 -2.7067408914256896e-001
    7.6879377712142684e+001 -3.1188007173320853e-001
    9.5206587386488280e+001 -2.9661098670001712e-001
    9.9620466782810112e+001 -3.1394986607433928e-001
    1.5154400918251491e+002 -2.6367227809628191e-001
    1.2912046458200990e+002 -2.2719090714198137e-001
    8.3717094301494356e+001 -2.6840916294902589e-001
    5.6193845314427797e+001 -2.3618104869116893e-001
    1.6225792290882083e+002 -2.4090254800312089e-001
    1.5379256064192850e+002 -2.5570720718849560e-001
    2.4142203201879436e+001 -2.5105965296005323e-001
    6.6130044253457939e+001 -3.3736373102894568e-001
    1.6151455652512760e+002 -2.6177515980265198e-001
    2.4670406093395300e+002 -2.1173300183454069e-001
    1.1273187197553415e+002 -2.9887825383154165e-001
    1.9874772519017509e+002 -2.2300507353984964e-001
    9.9340343231688337e+001 -3.3286262424998941e-001
    1.3129439882922404e+002 -2.5880839560628288e-001
    1.2476297218888470e+002 -2.2494336067829257e-001
    7.9208855532716882e+001 -3.2145026791286258e-001
    2.3857944708875155e+002 -2.5264278705001064e-001
    7.1414730135073384e+001 -2.4837169481769217e-001
    8.7603492950227690e+001 -3.2386476336406578e-001
    2.2542165414343751e+002 -2.4812127808598616e-001
    1.6199112273708744e+002 -2.4320291678301978e-001
    1.6483226618211017e+002 -2.4791271542647939e-001
    1.6147938802252801e+002 -2.8308882922748729e-001
    3.3214701724658636e+002 -1.9800191562166003e-001
    3.6471198092421082e+002 -2.0686563662225047e-001
    1.9341219838854019e+002 -2.1599478282212478e-001
    1.1583568287414651e+002 -2.1061133002544030e-001
    1.2302478451884674e+002 -2.7526527164830028e-001
    1.7374011866659737e+002 -2.6216751280636252e-001
    1.6114367186212192e+002 -2.5501036790498133e-001
    2.0227301729693863e+002 -2.5473961040254312e-001
    1.2782202270002567e+002 -2.0926160589381126e-001
    1.8902597280785290e+002 -1.9758308689786336e-001
    1.2494977208262689e+002 -2.8305218956219647e-001
    1.0376782549821927e+002 -2.9061493475327099e-001
    6.3280667138705255e+001 -4.1264044638145464e-001
    1.1895265269845871e+002 -3.2382846632556112e-001
    1.3000427592142702e+002 -2.9988754361435754e-001
    1.0333437695627063e+002 -3.0663827026267987e-001
    1.0903327832177511e+002 -3.3119576023717534e-001
    1.2210155547577143e+002 -2.4791364116211251e-001
    1.2728867658911177e+002 -2.0968679461576342e-001
    6.9160762655732697e+001 -3.1682951752771626e-001
    2.1106764798887417e+002 -2.2687383947421302e-001
    1.5229808808502989e+002 -2.3079837753924173e-001
    1.1888266437302136e+002 -3.0384224636084789e-001
    2.2700137967075037e+002 -2.1751753220844439e-001
    3.7162185821216546e+001 -4.9680811135463504e-001
    1.1836381411333706e+002 -3.1534433185377353e-001
    2.4584827463571102e+002 -2.2818864455494611e-001
    1.7249834968248373e+002 -2.8713736334934481e-001
    1.7035439996066680e+002 -1.8609862267679955e-001
    1.4147544487096371e+002 -2.5578858140449379e-001
    1.1666664467608568e+002 -2.0416606392751541e-001
    1.7114266993199323e+002 -2.4110045131321997e-001
    7.1212269140301245e+001 -3.4775046048775027e-001
    1.1841216267900138e+002 -2.5273256617402662e-001
    1.8803551440827536e+002 -2.3533976296133796e-001
    1.0890342356617411e+002 -3.2369776504096309e-001
    1.3066576233343764e+002 -1.9924415071859142e-001
    1.0622037931940666e+002 -2.2454822678152517e-001
    1.3055178203073353e+002 -2.4749661911181300e-001
    1.0302032608180573e+002 -2.7476326714694482e-001
    8.4555511287394950e+001 -2.4816800522340532e-001
    1.2081784458430697e+002 -2.8360464057460250e-001
    9.6392852147863707e+001 -2.7186326926471899e-001
    1.9760668120885131e+002 -2.2424493918377894e-001
    8.3545572989586304e+001 -2.5995262657758028e-001
    3.2222551576444494e+002 -2.0367112672838569e-001
    7.9218826952076270e+001 -3.7046738135584117e-001
    7.6730604665520630e+001 -2.7236267010852855e-001
    6.1088622410174523e+001 -3.5587447477407519e-001
    1.7716609741233540e+002 -2.4653417122326257e-001
    9.2386250729824241e+001 -3.4200234430539783e-001
    2.9234230754790906e+002 -1.4487637768223738e-001
    2.1014467937756262e+002 -2.3996354538126138e-001
    1.3794483730023364e+002 -2.5490425493177865e-001
    1.5527188338002333e+002 -2.3275403535920636e-001
    1.7966684591754421e+002 -2.3419374966349404e-001
    2.0923736408175932e+002 -2.1316498447157275e-001
    1.7121451104155824e+002 -2.2518984653275240e-001
    8.0822056503436926e+001 -3.0703003939759244e-001
    1.8382562345732362e+002 -2.4283371847506760e-001
    7.6188593161116515e+001 -3.6153818530868131e-001
    1.6668024158499094e+002 -2.4410298069050529e-001
    7.0101116832854004e+001 -2.5872953598526760e-001
    1.4812841709039284e+002 -2.6001611092656068e-001
    2.4142553396534169e+002 -1.8319488436295442e-001
    6.8249541332445943e+001 -1.7599243859659924e-001
    1.2687765412939116e+002 -2.5860444359250023e-001
    3.3087607041352641e+002 -1.7476585346624401e-001
    1.5722547361184746e+002 -2.5605027304612921e-001
    1.1709204268841344e+002 -2.5133019624891595e-001
    1.4977120651284372e+002 -2.8237819466588004e-001
    9.9272175807139419e+001 -2.7962289096077314e-001
    1.1356666025466085e+002 -2.9301763291435234e-001
    8.8338900692683438e+001 -3.2514984285928161e-001
    2.3917212226588418e+002 -2.2453617177453131e-001
    1.2043144763614079e+002 -2.4632659947719210e-001
    1.2906948561610372e+002 -2.8025853103592258e-001
    8.1968885482799550e+001 -2.9042250369365219e-001
    3.3322019847501292e+002 -2.1282705610363783e-001
    8.7592179742384175e+001 -2.6530642386331704e-001
    7.3051189667100161e+001 -2.1356935270067820e-001
    9.9603369222847391e+001 -2.8698853263023694e-001
    2.3059171201233289e+002 -2.0084837314598208e-001
    1.4166585560054250e+002 -2.4326667941443902e-001
    1.9324036275693399e+002 -1.9479950623402634e-001
    9.4916474309798943e+001 -2.6293515054330974e-001
    1.5084790628324205e+002 -2.9705314374294245e-001
    1.2570070261179939e+002 -2.8552168353351254e-001
    3.6069549576707772e+002 -1.7560796637396961e-001
    1.7347581938405602e+002 -2.7584756140156758e-001
    3.1084256845084712e+002 -1.8747556427215398e-001
    2.5996383245899148e+002 -2.1260857338070235e-001
    5.1285590800198509e+002 -1.7896911763861917e-001
    1.2747679057371812e+002 -2.2421167723428903e-001
    1.0173794294714133e+002 -2.1974651062478323e-001
    1.3319329777244761e+002 -3.0034280533557284e-001
    2.1172227732244932e+002 -2.5367347372051630e-001
    1.5524326147054435e+002 -2.6636491519376487e-001
    1.1067135895032287e+002 -2.1197577091176978e-001
    2.2270152288707880e+002 -2.1588246349710746e-001
    1.0059102187245016e+002 -2.7876593802643601e-001
    9.1312530013988976e+001 -3.8748965885945996e-001
    1.4122790758312325e+002 -2.5067788850377148e-001
    1.0407692062927093e+002 -2.7587265528276589e-001
    1.1089026780998918e+002 -2.8049199388491586e-001
    1.0892747820871445e+002 -2.7292705059874678e-001
    4.6430856869419166e+001 -4.1326560367812326e-001
    7.6974045169324015e+001 -3.5874604369462937e-001
    1.1203387694268626e+002 -3.5012728161781470e-001
    1.5987128365198791e+002 -2.2832470581952455e-001
    3.5314174047553036e+002 -1.8294646375070894e-001
    1.6530034077059170e+002 -2.4102368028118348e-001
    1.8200797463613750e+002 -1.7376079147226417e-001
    1.1381501410103112e+002 -2.5955975312803070e-001
    1.3642920786605572e+002 -2.7858758298938585e-001
    5.7667339569706861e+001 -2.1709272974302637e-001
    8.8851531770602477e+001 -2.4778440935514434e-001
    7.4913792496262630e+001 -3.4446006086986192e-001
    6.8375935740351807e+001 -2.4494634609420571e-001
    2.5077311708577153e+002 -1.8982924034597429e-001
    1.0045455521597431e+002 -3.4954243381376943e-001
    7.7278417377908525e+001 -3.0646501639135026e-001
    1.7380355137633828e+002 -2.2660189417080109e-001
    1.2650509788682351e+002 -2.9820622378148581e-001
    1.0834723154931756e+002 -2.5593775513950595e-001
    6.4091155682480817e+001 -4.0335975429271453e-001
    9.5618959504050082e+001 -2.9412321691864418e-001
    9.3115584850673940e+001 -2.2604499221346080e-001
    1.0669257442017698e+002 -3.0739264403642003e-001
    1.2818027296033733e+002 -2.1319569975269625e-001
    5.0935700652314985e+001 -3.0673050219611575e-001
    4.9252068169497619e+001 -2.8122216950598011e-001
    1.0865796133037654e+002 -2.7676362008803418e-001
    5.6618581577094425e+001 -3.2207691399437011e-001
    1.3752193753329780e+002 -2.3443128405904673e-001
    8.6923780532861386e+001 -3.0693152741384450e-001
    1.1339846192701516e+002 -3.0053901042365477e-001
    2.1556207986118156e+002 -1.9201795867730079e-001
    1.1076539370615546e+002 -2.2734834098334170e-001
    8.9654680482690154e+001 -2.7373645638155553e-001
    7.7268009304037164e+001 -3.5923572161750000e-001
    7.6971715775990077e+001 -2.3658123601267161e-001
    8.4156592235137865e+001 -3.7348015163788395e-001
    2.6890674065213813e+002 -2.2095387583136955e-001
    1.7617513817583264e+002 -2.7791254325691545e-001
    7.3555574645687045e+002 -1.5934184446577973e-001
    1.1477251801934275e+002 -2.9816377404901712e-001
    1.9927501255584062e+001 -4.5175986980591071e-001
    1.4171779090511271e+002 -2.6922469431379037e-001
    1.1191874792854190e+002 -2.5686120723695793e-001
    1.3443185141015030e+002 -2.5581527231670159e-001
    6.7374707301496642e+001 -3.0570965801059463e-001
    5.5157749049362387e+001 -3.8517713931277264e-001
    1.2570742972139192e+002 -2.6078839019263506e-001
    6.9805737359053680e+001 -2.9291864904219300e-001
    1.0271202138506540e+002 -2.9168831696629061e-001
    7.9871685886614245e+001 -2.7518146858776499e-001
    8.5465532187491661e+001 -3.6757882219205218e-001
    9.9142418218716315e+001 -3.0041359015259095e-001
    9.1418614140863525e+001 -2.8502481525499274e-001
    1.8966747941209084e+002 -2.4172649818587050e-001
    9.9071173496440991e+001 -2.2362126844635127e-001
    1.1503254057747648e+002 -2.9738772282971015e-001
    7.5006164168325242e+001 -3.2366895317247807e-001
    2.0407455665678370e+002 -2.1651708786782195e-001
    9.0495741929190928e+001 -3.5307148240607161e-001
    1.7392100998057208e+002 -1.8910412338075228e-001
    7.3119666738130229e+002 -1.5233438968829136e-001
    3.5769652964151686e+002 -1.7787569012733837e-001
    1.7595146202618980e+002 -2.3131242737739049e-001
    9.8949389009913730e+001 -2.9508487695149677e-001
    9.2249041028145442e+001 -1.8249754650258662e-001
    1.4586263786036784e+002 -2.7806221975245271e-001
    1.6180516441873982e+002 -3.0185716465506007e-001
    1.1263482954101698e+002 -2.9265867604161472e-001
    1.1963522098532327e+002 -2.2969915015219591e-001
    1.1907944509639046e+002 -3.0021615776220256e-001
    1.7525773695696802e+002 -2.7768426101249205e-001
    1.7785235793163392e+002 -1.9961618614457741e-001
    1.5389507696011660e+002 -2.4265863464734133e-001
    8.8602561944044240e+001 -3.0037501688737805e-001
    1.5700974700491554e+002 -2.2391431495385652e-001
    1.3852308685222351e+002 -2.6607075212580455e-001
    3.1937968123726750e+002 -1.5867648366183496e-001
    1.8853271008132151e+002 -2.0256690825893858e-001
    1.4910000051326739e+002 -2.2265603071258708e-001</input_scale>
  <output_scale>
    1.0526315789473684e+000 0. 1.0526315789473684e+000 0.
    1.0526315789473684e+000 0. 1.0526315789473684e+000 0.
    1.0526315789473684e+000 0. 1.0526315789473684e+000 0.
    1.0526315789473684e+000 0. 1.0526315789473684e+000 0.
    1.0526315789473684e+000 0. 1.0526315789473684e+000 0.
    1.0526315789473684e+000 0. 1.0526315789473684e+000 0.
    1.0526315789473684e+000 0. 1.0526315789473684e+000 0.
    1.0526315789473684e+000 0. 1.0526315789473684e+000 0.
    1.0526315789473684e+000 0. 1.0526315789473684e+000 0.
    1.0526315789473684e+000 0. 1.0526315789473684e+000 0.</output_scale>
  <inv_output_scale>
    9.4999999999999996e-001 0. 9.4999999999999996e-001 0.
    9.4999999999999996e-001 0. 9.4999999999999996e-001 0.
    9.4999999999999996e-001 0. 9.4999999999999996e-001 0.
    9.4999999999999996e-001 0. 9.4999999999999996e-001 0.
    9.4999999999999996e-001 0. 9.4999999999999996e-001 0.
    9.4999999999999996e-001 0. 9.4999999999999996e-001 0.
    9.4999999999999996e-001 0. 9.4999999999999996e-001 0.
    9.4999999999999996e-001 0. 9.4999999999999996e-001 0.
    9.4999999999999996e-001 0. 9.4999999999999996e-001 0.
    9.4999999999999996e-001 0. 9.4999999999999996e-001 0.</inv_output_scale>
  <weights>
    <_>
      -2.2434994232223917e-002 -4.0651794921959628e-001
      3.5033674279656086e+000 -9.9815322394602890e-001
      -3.8425618152270841e-001 -1.3703979750638515e+000
      -6.4476997385756707e-001 -5.2672994796508887e-001
      -7.3850172465710884e-001 -1.8014088310243048e+000
      -6.3715518159029383e-001 -1.7107109251999714e-001
      7.5900126810649005e-001 3.6908006928275566e-001
      -7.9395192658298874e-001 -9.8726141843165593e-001
      -1.1263689433247737e+000 -1.7981469761500510e+000
      -7.4550286592857951e-001 -8.8529007313639863e-001
      3.0394020870077976e-001 2.1083104433088671e-002
      -3.1688324369901605e-001 -5.0078097667179611e-001
      3.7741623215337133e-001 -7.5596254532230012e-001
      2.1467024481056207e-001 6.3795879762743068e-001
      9.5472094992219325e-001 -5.0713386990655196e-001
      -2.5321486887163713e-001 -3.3013522012570290e-001
      -3.0924567763497662e-001 -9.6486882008301009e-002
      -4.0005631156759688e-002 -2.0915106895305358e-001
      1.0753480783214100e+000 3.9967942820120872e-001
      -2.6173465135898129e-002 -8.9043057611655574e-001
      -4.3956079255311636e-001 -3.0795951423383550e-001
      -2.5668306841768429e-001 4.9563451870865161e-001
      -3.1339361335451676e-001 -6.0440345974919429e-001
      -4.5249331189531583e-001 -8.1756153049274971e-002
      1.4330397546963107e+000 1.3039553592487705e+000
      3.5643064145932235e-001 -4.2543560555220927e-001
      -5.7492245351841698e-001 -7.2409518494712533e-001
      -2.3589920683517621e-001 4.6126144440627720e-001
      6.7606830410324481e-001 -8.7073988657193624e-001
      2.0542209936542727e-001 -9.2297708051780489e-002
      6.1440850979600725e-001 -1.4259192973778074e+000
      -2.1195917272048215e-001 -4.9024613430754949e-001
      -3.3271425732094490e-001 -6.6707737269015366e-001
      -2.6713111799310302e-001 2.7586456574939647e-002
      -4.3905309055453606e-001 -7.0557616243965904e-001
      9.3203615975388288e-001 -1.3806594137892872e-001
      6.7421079965153563e-001 -1.6357460306899493e-001
      1.0412779305397508e+000 -9.7993741232525355e-001
      1.1471214136365690e-001 8.5810794454711203e-001
      -2.5948667555746766e-002 3.9503100995920060e-001
      -8.5064062951596714e-002 1.1212251431141088e-001
      5.6920907243557850e-001 6.2620629461641186e-001
      -6.5497184136179096e-002 2.9874582554451684e-001
      2.6868523246173831e-001 1.7734859294785987e+000
      3.1994337404324202e-001 -2.0127464090478844e+000
      4.9556765206524928e-001 -3.9431697532997523e-002
      -1.2377329688416545e+000 1.4631265988607822e+000
      4.1306799966487076e-002 -1.7168241775617607e-001
      1.6219879997064676e-001 6.7348145172435947e-001
      6.6844191295354649e-001 5.8253967730898071e-001
      -1.1271942663729821e+000 -6.0432584906936038e-001
      2.2489001661618474e-001 6.3925879178573286e-001
      -7.9074167255089989e-001 -6.7577179034635493e-001
      7.4820875904025766e-002 8.9756740718046168e-001
      -9.5023737209781012e-001 4.1367600081060840e-001
      1.4167583290508283e+000 1.6337184788719799e+000
      -8.5287561798280287e-002 2.3240398710866056e-001
      -1.8444108296743833e-001 1.2204529181120781e-001
      -1.4857475726253613e+000 -1.6972306314186944e-001
      2.7812493603544480e-001 -8.2107688218598773e-001
      6.9251276214745994e-001 8.4841819788872730e-001
      -4.5433486586143279e-001 -2.2223888044628623e-001
      1.1563256437665306e-001 1.2392091036372788e+000
      -4.6968519149041082e-001 -5.4838436197902574e-001
      -1.9458354712765191e-002 1.4298342862782261e+000
      -1.0816116783193470e+000 -1.2023440242823276e+000
      1.1457770641905758e+000 3.2370610586544152e-001
      -1.1198112829168752e+000 -9.5556110565732533e-003
      5.0834177767508226e-001 -1.7461827972088595e-001
      1.7609489485638763e-001 -4.7160410718241741e-001
      8.8463656639400234e-001 1.8484066730527615e-001
      -4.1391392046213676e-001 -5.8271668566699286e-001
      5.2890304495336071e-001 3.7045082462216739e-001
      7.6099441217941668e-002 -1.6856792144715277e-001
      -8.0665876972208328e-001 7.0256777963794304e-001
      9.4901814888542491e-001 2.6341505646277390e-002
      -1.6089785646642341e-001 7.4931018930659621e-001
      1.5944967803353063e+000 9.6030907972952262e-001
      -8.2466240600202856e-001 2.8125758294460099e+000
      -3.1048887662670621e-001 1.3701089944254017e+000
      1.8532224929305934e+000 -4.1349611552125615e-001
      -2.5622923728176411e-001 1.8491034245806639e+000
      8.2637950446469566e-001 -7.0534837811731466e-001
      -4.4068859013132589e-001 6.2796229743790544e-001
      2.0707367930233173e-001 1.0039031972257009e+000
      -2.6435262673988230e-001 -9.4800898673515144e-001
      -3.9812348438103790e-001 -7.2967380075445443e-001
      3.7041941866269312e-001 1.0699774392717873e-001
      4.6215718962665728e-002 1.0773973086731308e+000
      -7.4494307839546370e-001 -1.5915367131346272e-001
      3.7186141857606220e-001 2.9327466783793243e-001
      -3.5447069929863795e-001 1.3193779032676217e-001
      2.0150305488483236e-001 -4.6259005425131672e-001
      -8.0596805294986607e-001 -3.0540737786195947e-002
      -1.0260071226712171e+000 -5.0024206336747279e-001
      2.3609388744996029e-001 1.9665193346193946e-001
      4.9397293337254716e-001 4.0154703917723626e-002
      -2.1693441672513722e-001 8.7596767799240902e-002
      -8.9070508781879415e-002 3.1545631342224151e-001
      -3.9276265764580176e-001 -3.6676425453015321e-001
      -2.5871749106704112e-001 -5.6828469651784308e-001
      2.5395349949537731e-002 8.7585894304576783e-001
      3.6138483124367171e-001 9.9206040468488776e-001
      -7.1670458766015466e-001 -2.2895608578479787e-001
      -4.7285778364422820e-001 2.4364999982694600e+000
      1.0069507910267534e+000 1.7668543890753954e-001
      -1.2252139792697010e-001 -3.9854801335992129e-001
      2.4200264992373608e+000 -1.7657597273093448e-001
      -3.1148727736918097e-001 -3.2539985710130921e+000
      -5.5877171367047873e-001 2.7599454069723580e-002
      -1.4664949763924597e+000 9.7174663381605075e-002
      -6.3417600406142149e-001 5.2109642101530351e-001
      -3.0416562533963054e-001 -3.0349281629081493e-001
      -6.3415057841541569e-002 -8.9955746231377010e-001
      -6.0174243272079195e-002 2.0976774428158920e-001
      5.8737187976530802e-001 1.0513206515300364e+000
      1.2895421663225970e-001 -1.2691501701345764e+000
      3.0744137843397740e-001 7.4948626459939482e-001
      3.2805750735233691e-001 -1.7451122581250250e-001
      1.3960263082409072e+000 6.0370757389589957e-001
      -5.3337493837597991e-002 1.2915154753926321e+000
      -3.6238452391082271e-001 5.5288489976886890e-001
      -3.1898761294896721e-001 -5.8125935995644817e-001
      4.3142078367296798e-002 -1.0659119259772349e+000
      -7.1988304633517475e-001 -9.6352339664718678e-001
      -1.1677656318053768e+000 -7.0147667988236032e-002
      -4.7287017139043874e-001 1.3486750783072945e+000
      -4.4924339985265849e-001 -1.4601889487903752e+000
      3.6178251598996758e-001 -3.3053786235572087e+000
      2.6562824362133980e-001 4.8619616235116625e-001
      4.8277663998811049e-001 -7.6690567418235034e-001
      -2.2726433125666437e-001 -5.8806700050476124e-001
      7.7116854387440692e-001 -5.6486225645355514e-001
      -3.5241978380743871e-001 2.5581499656331835e-001
      -3.2189604422936197e-002 7.3068159600927041e-001
      4.1844697021675398e-001 1.4268606601513788e-002
      -5.6642882882214440e-001 2.8755257707128651e-001
      2.4634395373499390e-001 6.9907544672993727e-001
      3.0904348672328519e-001 2.7721747639279182e-001
      -7.9767470764664872e-001 3.8576265254030767e-001
      1.0408374944864518e+000 2.0461683469205824e-001
      6.8881984444811251e-001 -1.1112870453626638e+000
      1.0486738219060463e+000 -4.1632789006596266e-001
      -1.0315764641217771e+000 -8.8132621414181622e-001
      -9.6606434811846820e-001 -1.5194768109035781e+000
      -2.5768510828468066e-001 -6.3845835092615966e-001
      7.7028931625541075e-001 1.1591263745035341e+000
      -8.0634668892449857e-002 -2.0417031643055711e-001
      -1.2626634047604639e+000 -1.2672917957596106e+000
      4.1044790246258039e-002 -3.7944096912362374e-001
      -1.2154375440746419e+000 -8.8069552491202063e-001
      1.5408365220230305e-002 7.9599588582179714e-001
      -5.2866654596704185e-002 -2.7437778513920447e-001
      -8.4743922647633241e-001 4.6887701875669063e-001
      -6.8451864758394432e-001 -1.4134406990462107e+000
      3.2250367294465194e-003 6.0203207998778507e-001
      1.3971397491717126e+000 6.3816353104251455e-001
      2.7672331806949652e-001 -4.4378391762425179e-001
      1.0630944161461473e+000 -2.6458117562692780e+000
      -6.2872877924096693e-001 -1.5728565462062841e-001
      1.5572505797920451e+000 -9.3191730748637305e-002
      -1.7270438825761265e+000 -6.2502978371501661e-001
      8.0357072131150200e-003 -6.2209113365839208e-001
      -3.1496634567060572e-001 2.1709375692572954e+000
      -8.0560317796018044e-001 -1.6816869826199465e+000
      -1.2966905787359919e+000 -1.8728366952526134e+000
      -5.7552355272263178e-001 -8.7233420620834246e-001
      -1.8658558487330237e+000 -1.1522838887976190e+000
      -1.5626098330638118e+000 -9.7160514134842935e-001
      -4.9841259418143402e-001 -1.3305885117589153e+000
      -7.5208966819370573e-002 -2.1330714192774289e-001
      -4.2003543739458798e-001 6.5762886113648097e-002
      2.3966479711678527e-002 1.6126595889497433e-001
      -1.8538054527182496e-001 6.6746007216741912e-002
      -1.3901496286140630e-001 -2.2285017257676809e-001
      3.0237639213202967e+000 7.8937215381851189e-001
      1.8860944485725404e+000 5.1742621946277256e-001
      1.6406363325428980e-001 5.6370690730376893e-001
      -6.4499762082949763e-001 -6.3181881461011313e-001
      3.5023683613213774e-001 8.4490997172807641e-003
      4.1516627468910855e-002 4.5517108078750523e-001
      7.5126160400796038e-001 -2.6826797158274390e-001
      8.0335981208599072e-001 5.5119902159799661e-001
      3.0039646139974585e-001 -3.0720381551000492e-001
      3.1835230374933327e-001 4.3143314883869349e-001
      -2.4989118109960107e-001 -6.9760384930688013e-001
      -1.5904780834836991e+000 2.1188178664101680e+000
      -5.5073394350130012e-001 1.0070403941670725e-001
      -5.4132908097435017e-001 9.6649197969209544e-001
      1.3896547851485532e+000 -3.2494093148065639e-001
      1.7046626568546899e+000 -1.4299148456217441e+000
      -3.1353869542765400e-001 -3.0878690997910918e-001
      -1.5178400617102658e-001 -9.3323931263305393e-001
      -4.8732487043073264e-001 1.8325338032628604e+000
      -7.3797686949915819e-001 2.0163282360390011e-001
      7.8512593105487194e-002 -4.3261315131982081e-001
      2.7061349633582049e-001 3.9785402733028341e-001
      1.2934544203404523e+000 3.9803888865633191e-001
      -6.6424507575009140e-001 5.7471926092871373e-001
      -6.3942565027902895e-002 1.0267757124888993e-001
      6.4391453169655977e-001 -4.5654620384232897e-001
      -3.9918031115062180e-001 7.5050671538817759e-001
      6.1191700889459091e-002 -3.0278528415250033e-001
      -3.0341266838746755e-001 -5.2929519572778105e-001
      -7.6839120669096461e-001 2.2451398967417937e+000
      -1.0163234305317172e-001 2.6446413956841003e-001
      -4.4447270610658945e-001 -1.0134930195392844e+000
      -2.2960279915294263e-001 5.2463331096608401e-001
      -7.7442878452562880e-001 3.5656930447637103e-001
      7.4579221048217259e-001 -4.5343854980649356e-001
      -4.1549701337052214e-001 3.1785277311103077e+000
      -7.8221061635640332e-001 -1.8727784977204649e+000
      -5.6118566770236644e-001 -1.6416159871290557e+000
      -1.5086037992546022e+000 -7.9570555581068325e-001
      -2.7950288001770912e-001 -3.3738190523603623e-001
      7.2509275094112069e-001 2.5287733779070337e-001
      -7.7437087781151137e-001 -2.0517675707514581e-002
      1.1521686097639176e-001 -4.7129910698390592e-001
      -5.8431776673665814e-001 -2.0350150967257390e+000
      -2.9925347719742641e+000 -7.5228291818163776e-002
      -1.0435514725509287e+000 -1.0499319227965267e+000
      -9.5630889529387242e-001 2.8123889031153548e-001
      -3.6242667795333711e-001 -3.6426000596570540e-001
      4.6853083685708019e-001 -5.7257692902016266e-001
      2.6553695660346972e+000 1.0640045558724096e+000
      5.5213836540457506e-001 8.2596183610117349e-002
      -1.1804191054934094e+000 -5.1700610580418671e-001
      -1.1741032057341745e+000 -4.4768206691827983e-001
      5.4255193409216806e-002 -1.3714040631891926e+000
      -1.5181772724919190e-002 -3.0504955274689205e-001
      5.4239111306706250e-002 1.0332286898526277e+000
      2.7248786645055700e-002 -6.1387416221069635e-002
      4.9389066026328943e-001 1.4669061055733217e+000
      -1.4671673004787403e-001 -9.4356571825394021e-003
      -9.8218718072569811e-001 1.5446604020101500e+000
      2.9279665108284708e-001 6.6396581390694354e-001
      -6.3330537736003778e-001 9.2707123641666458e-002
      4.0700685079259169e-001 2.1042195352447042e+000
      1.2850042372160260e+000 2.2517200598670065e-001
      7.2534763339454389e-001 3.4030657651254292e-002
      2.2517607537718484e-001 -2.9138942740614282e-001
      7.6778512974067370e-001 -2.0539691797227430e-001
      1.0469513535950399e+000 -2.6512086024438136e-001
      2.7110534058293806e-001 3.9456054494239660e-002
      -3.8526713222577691e-001 -4.4176394293526666e-001
      -6.1138094582947622e-001 6.6374510743660753e-001
      -2.1296863798129698e-001 -6.6020215294600815e-001
      3.9639718777365829e-001 -3.0910656524022834e-001
      9.4456974837097751e-002 -8.0422064746363997e-001
      -2.8916593263968438e-001 4.9762095112061655e-001
      -2.4030148179414501e-001 3.2393822585462012e-001
      3.3279779258368836e-001 4.5178023888536950e-001
      3.8477457366616419e-001 5.9750141523473077e-001
      -3.5257939683224820e-001 -5.8550031859944929e-001
      -1.3012243678517751e-001 -2.4752859175478328e-002
      -1.2921123820305436e-001 9.9724005667727622e-001
      -2.1870700458019643e-001 7.2569280084076937e-001
      -5.2502762634687450e-001 -1.8268472988115511e-001
      2.6492445017377075e-002 1.2085419525694197e+000
      6.1724674459100448e-001 -4.5801879071549823e-001
      6.6285224743824434e-001 -5.4249429225692192e-001
      4.6125228656303841e-001 -1.8292051028273877e+000
      2.6783830738752568e-001 -6.3623721651828710e-002
      2.5438276381716435e-001 1.8603580420263702e-001
      -2.6893569782769772e-001 -1.2039070215402086e+000
      1.2799553304745073e-001 -6.3747037900702663e-001
      -6.6740459975412969e-001 -1.8216219782054095e+000
      -1.4489636090533793e+000 8.5029409641287912e-002
      2.7659573209584942e-001 -7.0615836068037341e-001
      -8.4483528935179153e-001 1.9311224490889602e+000
      1.5400459338813108e-001 3.5757384997110793e-002
      -6.3894378406308933e-002 -2.2263722883480563e-001
      -1.2205986426018202e-001 1.2147772950429837e-001
      4.0727804388333406e-002 2.0073136326450705e-001
      -1.5653388186384827e+000 3.0356721600786224e-001
      -4.3509138082260701e-001 9.4674786560886648e-001
      2.6107456407498258e-001 1.4481003568531927e+000
      -3.6091258226923573e-001 5.6499548235448072e-001
      6.9971190779070580e-001 9.6579085916170593e-002
      -6.3852987644369752e-002 3.1549512013720776e-001
      1.0974814522515436e-001 2.6414008599675045e-002
      4.5932913883477283e-001 -5.8198241503673109e-001
      -5.0980554109413911e-001 5.9738180711868483e-001
      -1.0740993118766553e+000 -7.1874544570812249e-001
      -2.7183373069599420e-001 1.6191819513163999e-001
      1.1557785073870610e+000 -7.3979305497237380e-001
      3.2119690619152502e-001 6.3246737968846456e-001
      8.5284031620131040e-001 4.8916778640236698e-002
      -3.9519258852736848e-002 -7.5581583802759145e-001
      7.6566814246667547e-001 -2.7197053385241160e-001
      5.0854635622445188e-001 -7.7565678755005241e-001
      -1.0361664945367242e-001 6.6260017972839402e-001
      6.2404380719851793e-001 2.6113216539450468e-001
      4.8233794451260154e-001 1.8294835298515336e-002
      -5.1664459178009958e-001 -1.0371236882209281e-001
      2.3546864499153267e-001 -4.9178609382456479e-001
      4.3138323388434158e-001 -9.5455230844196304e-001
      -1.1412963727161272e+000 -3.9445408973336171e-001
      1.0214879104055294e+000 -1.6918962493306264e-001
      9.1118455866928738e-001 3.9186453731716936e-001
      3.7774868670137890e-001 1.7023228403293394e-001
      -8.0747158172311118e-001 -5.9212069109029142e-001
      -3.5182132460125792e-001 -1.6847303739324257e-001
      -5.9755795386448951e-001 -4.4464545310879172e-001
      -6.1471330350017353e-002 4.5569241579499875e-001
      1.0704909660395945e-002 -2.0591911518393863e-001
      1.2493353646305700e+000 7.4990807047083663e-001
      1.1270465371097356e+000 -3.6788517346829996e-001
      4.4885853219734889e-001 1.7598797796686033e-001
      -1.7690691840032047e-001 -4.6424957524678173e-001
      -7.3627368578680200e-002 -1.3220849948899445e+000
      -9.0900454214655077e-002 1.2453262148995194e+000
      -2.7838904998051656e-001 -3.2471528090634144e-001
      -1.3266636484112424e+000 5.0044624289656364e-002
      5.7290419137414295e-001 8.0945748828139735e-002
      2.3427327381860605e+000 -3.0400600934310262e-001
      9.9113390799998369e-001 -4.6604140284478113e-001
      3.1650078343594362e-001 1.2235940125197421e-001
      -3.0274599831259680e-001 -1.0443639630367559e-001
      -1.3810502684545831e+000 -1.0292501003656451e-001
      -3.2247298048588313e-001 -6.1773349255862819e-001
      3.2422600186919959e-001 -5.5557717355768321e-001
      1.9584356194179386e-001 8.0219431239113029e-002
      1.0951445333084933e+000 1.8181571276358799e-001
      -3.2414611931024562e-001 -1.1681264655687165e+000
      1.2855646391298619e+000 9.8252789742892907e-002
      -1.0439379650179649e-001 2.8547512475432441e-001
      -3.8961040803308961e-001 6.0311552103027510e-001
      -1.0941977825921219e+000 3.1446455911223320e-001
      4.4372254909047659e-001 3.8716105691972413e-001
      -4.6252013242679690e-001 5.3031161392614778e-001
      1.5635130792571578e-002 1.6084273476634048e+000
      -4.2143015414371272e-002 -6.1816873522761095e-001
      -5.2492936112172861e-001 -2.4429931188843929e-002
      3.0433365953335201e-001 5.8952223371564083e-001
      2.1796223774730268e+000 2.0656308320127859e-001
      -1.0720479017209277e+000 -6.7247200899219828e-001
      5.8646837233893179e-001 4.9430954935506005e-001
      -5.3178914391123022e-001 2.1146914856472157e-001
      2.4659258548841526e-001 5.9764754415682808e-001
      5.2872104517910123e-001 -6.9805074519944832e-001
      3.3164413741137039e-001 -3.4507881319046063e-001
      -1.0732250723047743e+000 -6.2793674344165240e-001
      -5.7926933915523926e-001 -8.4393250353887816e-001
      -1.6572083173424268e-001 -1.7458683750426551e+000
      -1.5122027586629312e+000 9.6838564300937013e-001
      -2.0175553318427548e+000 6.0977240254134368e-002
      2.6843508032787602e-003 -3.4539246988036419e-002
      -7.4716693349582530e-001 -1.2104354207425103e+000
      -7.6975385316459241e-002 -3.4458648578033435e-001
      1.1338243542067903e+000 1.0306061032256633e-001
      3.8992793318166352e-001 2.3159853668100787e+000
      -3.5640037974318767e-001 1.7559795985380883e-001
      -1.7415162075051113e-001 5.0599674068741851e-001
      -2.4768370565574080e-001 -1.2347212269161132e+000
      3.8186491847381093e-001 4.2516704568158598e-001
      2.0246788705748175e-001 3.3574859614387409e-001
      -1.6294315158540684e+000 8.7035922560284626e-002
      3.0062523158974908e-001 -8.4107156778372910e-002
      5.1691271539690997e-001 6.2745548056623934e-001
      -4.7145494275541350e-001 1.3182888600816609e+000
      4.2653511517467102e-002 1.5463342808796967e+000
      -7.6734060720617503e-001 5.3901075223708894e-001
      2.5889561143733530e-002 5.2038374222969586e-001
      2.4181204978426800e+000 -4.8686413361523040e-001
      -4.4337432531050752e-001 -1.1638779725952648e+000
      -6.9902453049174795e-001 -1.3589967030642416e+000
      -2.1138069228149914e+000 3.3578054086825065e-001
      -2.1429171828841183e+000 -6.9649279433602307e-001
      -5.5953271611032207e-001 -7.5652263581897639e-001
      1.7077832414830796e-001 -8.0178937009308082e-001
      6.6347771513904730e-001 1.2637563165597643e+000
      -2.5948372818753629e-001 -5.9054113200092684e-001
      -1.5102675322587072e-001 -1.2243614482691187e-001
      2.8965007932525427e-001 -1.3512064238242409e+000
      -5.0952032228924748e-001 -1.3360304170130433e-001
      5.1269861292816852e-003 1.1209971027036694e+000
      -1.4696675804617934e-001 -4.8518419173058169e-001
      2.7990464254107461e-001 2.0898341729944159e+000
      1.0596297963825592e+000 2.6947408847929144e-001
      8.2890553151908530e-001 1.1226103479975831e+000
      -4.2626003767985204e-001 3.6262716451843513e-001
      -4.2896906986556022e-001 -3.7909301329862388e-001
      5.0074779973946670e-001 -6.9189475287586899e-002
      1.0009189057648404e+000 1.7403874193472917e+000
      1.6173012632331873e-001 1.6565309517042714e-001
      -1.3387342529681443e+000 -2.2498348135880461e-001
      1.9848898060579352e+000 -4.5116502002593878e-001
      -1.0983004377431878e-001 7.5995659187911679e-001
      5.3619115802177186e-001 5.5773271475551023e-001
      5.8117452681937298e-001 -3.5548598110741308e-001
      -1.5050426253958096e+000 7.9125282741550096e-001
      6.6751823942510757e-001 6.4636219198451167e-002
      -7.7698205151081434e-001 -6.4284466880293134e-001
      -7.3218984687335276e-001 -7.8218311170924015e-001
      2.4763439226867240e-001 4.6898547375626216e-002
      6.4775677944456087e-002 1.0478530915605082e+000
      -1.4354528859877280e+000 3.5931320339732831e-001
      -2.0792780952951451e+000 7.2229660650131022e-001
      -3.7713074696229731e-001 2.2477073339545547e-001
      3.0216793156519667e-001 3.2679486748987696e-001
      3.6690833370786900e-002 4.0280869979007711e-001
      -7.0953254218105485e-002 6.3200300089850092e-001
      -7.6438473082626701e-001 8.0922428549746239e-002
      3.0130694543899422e-001 1.0882885314330863e+000
      4.7337518335577561e-001 3.5938904813036698e-001
      1.3986601048627853e-002 -2.3851822279160766e-002
      2.2843168843309131e-001 4.3004567070327848e-001
      -1.0043411399128161e+000 8.1435137182852377e-002
      -3.4298518155072960e-001 3.5948516324246077e-001
      1.4680215605418470e+000 2.5719689207569296e-001
      4.6107848680799124e-001 -1.5004323617272455e-001
      5.4348550597920642e-001 -3.2248385995103795e-002
      8.2496123031632917e-001 8.1105396457814183e-001
      -5.4830416904429324e-001 8.9786807399261903e-001
      -3.1513381722564363e-002 -1.0098122723368073e+000
      5.2569981712147766e-002 1.4306924790206627e-001
      -1.0938900016652677e+000 7.0317997130037904e-002
      5.4739280675712410e-001 -4.4484744194416226e-001
      -2.2938277740592350e-001 -2.4169895894216140e-001
      4.2931758638285572e-001 -6.6990682281957259e-001
      2.5745933854197411e-001 -5.5769143942701960e-001
      -5.1772498989469318e-001 6.7431943612134848e-001
      2.7431838419738830e-001 1.2552893762187445e-001
      -1.0944977012999380e+000 1.5476878554409754e+000
      4.6361517544765314e-002 7.8824197227830806e-001
      1.9390579597099963e-001 -5.3194444662411786e-002
      -2.8961327329378388e-002 7.2601578836934832e-001
      3.2678565948362320e-001 -2.3966331022021090e-001
      6.0056180063846010e-001 6.9546188023273586e-002
      1.8187670473798951e+000 -9.0852473619162932e-001
      -8.6130119452066917e-002 6.0163979624446329e-001
      6.6555099599508238e-001 1.1022850943096227e+000
      2.6407383103982354e-003 -1.9933366650970602e-001
      -6.5135945927415270e-002 1.0370685040236587e+000
      -4.9644158901798063e-001 4.3949560038313511e-002
      7.7694268323933025e-001 -4.5392330700465722e-001
      3.7186897082318787e-001 9.0259605812816157e-001
      8.1274391144786373e-001 2.9656734890975217e-001
      1.1117718457241438e-001 3.6653320402780160e-001
      -8.7706602653399102e-001 3.2402349099126415e-001
      7.8504081257375147e-001 6.0442176841162309e-001
      2.1009746596928999e-001 -9.4472221968456493e-001
      2.5107124396470865e-001 -3.9729543389699196e-001
      1.8582468137055963e-001 1.0773138380570577e+000
      1.2975459544189349e-001 5.7023845414856877e-001
      -9.4148418457350913e-001 7.0384746793845832e-001
      2.7366071501424355e-001 -4.6948867686635865e-001
      -2.2674259370450905e-001 -9.3926130654542261e-001
      -2.9966857740233160e-001 -1.4118749531005262e-001
      3.5839004047795991e-001 -1.4444018496341127e+000
      -5.7181842028487417e-001 -8.0447088214547102e-001
      -1.1051713180824343e+000 1.6762775496215265e-001
      -7.5045346895102738e-001 -1.0528315974851055e+000
      -4.1864218057262391e-002 -8.0551911583089320e-001
      -3.3327447281687168e+000 4.3122441209090412e-001
      -1.4967527448100443e-002 -8.6719929794963579e-001
      1.6823602611247566e+000 3.5849139718553208e-001
      -1.1515886710223009e+000 -2.5700361162092760e+000
      3.2594335354192125e+000 -5.9728962283049336e-001
      -6.1392812041639475e-002 -5.0142807989699167e-001
      -3.4119495416716550e-001 5.7314986899993181e-001
      1.0948198759116270e+000 7.0829389568593448e-001
      2.2818935018809261e-001 1.5707265859736183e-002
      1.0378675437559394e-001 -2.4078161304612719e-001
      7.2919282966600640e-001 -3.6718568845372984e-001
      -7.3516269509912013e-001 1.6709775645649430e-001
      -3.9137057794080482e-001 8.3461430358788846e-001
      1.0406814455458315e+000 9.4886974186399375e-001
      4.2323602855785908e-001 7.0840560035543587e-001
      -5.4771886273646275e-001 -1.7557809676192684e-001
      4.1112589869703098e-001 7.0689061913126428e-001
      2.5526597800282519e-001 -3.9643489871818782e-001
      -1.1838704009578888e-001 1.0940433359533208e+000
      2.9525074857470657e-001 -7.6540388536688125e-002
      7.5789804583114606e-001 2.2184978267838115e-001
      2.1363310391754775e-001 -7.6128859272584101e-002
      4.3262580067123213e-001 2.0397174759779344e+000
      2.6943244384978229e+000 -1.3018499333342146e+000
      4.5418755228742358e-001 6.4289225614951284e-001
      9.9580838506760117e-001 8.6431021248196704e-001
      -1.7523956439132096e-001 -7.1925386704582361e-001
      1.6778511412326935e+000 -2.7650168065700054e-001
      -3.4149930898980935e-001 6.1691332285460299e-001
      -1.7232532659047287e-001 1.0593307520932254e+000
      1.9032619894687706e+000 8.2840135720112940e-001
      -3.6011125132502814e-001 -1.2530273471522468e+000
      3.8065321036582674e-002 -5.1484322084123180e-001
      -1.3704010331339793e+000 4.9214220362098449e-001
      -1.0055336230469902e+000 -5.3154320365472865e-002
      3.3413888924749291e-001 -6.9810036485212568e-001
      -2.4931509003672886e-001 6.6883783511355610e-001
      9.0773139544231093e-002 -2.3454590572919773e-001
      -1.3605587660446519e-001 1.1606660207511965e+000
      4.8077756483263206e-001 -1.2106785832202314e+000
      1.6331609285067645e+000 -4.1922514648943421e-001
      2.7501611056899908e+000 1.8749869560958279e-001
      -9.0694862344430716e-001 4.6914408535773822e-001
      1.6987796512909739e+000 -6.4821906417096975e-001
      -5.9820200089675195e-002 9.6741869277524387e-002
      1.1346764913682474e+000 2.8259154811358261e-001
      -7.2970807574733634e-002 1.2257107641232206e+000
      6.9051651096808375e-001 -1.4370867938915471e-001
      5.0910698859639725e-001 -7.8014178254077415e-002
      -4.7377828547857276e-001 -1.9528884862454857e-001
      -2.1038177700554859e-002 5.2831166940999041e-001
      -9.8126328735411095e-001 2.6012098896943083e-002
      1.9767692165862676e+000 -8.0869684509280315e-001
      -2.0707814396980915e-002 -1.5221993091579005e+000
      -3.1014094037079909e-001 -6.4749086058963679e-001
      -5.0384778934211905e-001 -1.4915589295238114e+000
      -6.6496294940850342e-001 -5.9220046182875774e-001
      -2.1011561000573062e-001 -2.5247422342130954e-002
      -8.1173769858958578e-001 -7.2006268376588811e-001
      -7.8737346947223674e-001 1.2985679688866674e-002
      -5.4958480989696068e-001 -5.4985398338476488e-001
      2.2895348257026802e+000 2.5469522388053273e-001
      3.1126314155184565e-001 1.4452974242363317e-001
      9.1243899231237535e-001 -7.5579324034012144e-002
      -1.7323744504764460e-001 -4.4048611119269271e-001
      1.2194025562283774e-002 -7.3434526075956119e-001
      -8.6594889732737290e-001 -4.9442482776523078e-002
      3.9449564994687930e-001 -8.0872341469803655e-001
      1.9432191837624832e-001 -2.5143494829595048e-001
      -3.2992245208485532e-001 4.0952611441607872e-001
      -9.5272602882450819e-001 9.8531000991022843e-001
      5.5338423679977711e-001 8.2678415120678017e-001
      -1.4828914783578420e-001 -1.6433412077278658e-001
      1.0569023354918483e+000 5.9798347065484958e-001
      -3.9999641328065128e-001 -2.5584137865262302e-001
      2.0127882352661017e-001 4.1849800173046320e-001
      1.0856331005195055e+000 7.1787075248705245e-001
      2.0490243389816358e+000 6.5510727860795182e-001
      3.7266972206174259e-001 1.2623130116707157e+000
      1.1779467783110545e-001 4.2022434054497831e-001
      9.7948970783769640e-001 1.0946149009265524e+000
      1.6828087887777421e+000 1.1024424841869300e+000
      1.4130953666369497e+000 8.0770002404419894e-001
      5.5369588890097454e-001 4.5337583727965769e-001
      -3.4813277834221884e-001 6.7286171101602654e-001
      -1.3133589170692539e+000 -2.6198946593059097e-001
      -7.0297806830302867e-001 -2.1596980114327362e+000
      -7.6723386642643021e-001 1.9661431323890755e+000
      -3.9166386450712637e-001 1.8987279422065217e-001
      -2.1065082539576716e-001 -5.1684398351815453e-001
      -5.8918775879640151e-001 -6.4899816502753471e-001
      -3.4524300524577495e-001 5.6399040265282352e-001
      -6.2343537790014403e-001 -1.1042403385209600e+000
      5.6028529519568160e-001 1.1123538808363691e-001
      1.0023357679126681e-001 -6.9843221563362901e-001
      -1.0406998527322011e+000 4.8955925873063100e-001
      -1.2979987453207631e+000 -3.5277781784965129e-001
      4.7158795010012466e-001 1.3064222670569914e+000
      -6.0848174615924100e-001 -8.6215738372064399e-001
      -1.0289332556922404e-001 -4.8254484237146546e-002
      -2.4385141478980199e-001 -6.8213377899685035e-001
      3.8957226629601877e-001 -3.3940638516903576e-001
      4.6647695042798080e-002 1.7410700294801718e-001
      1.1277634729595258e+000 -1.0721152311753848e+000
      2.7820093868634599e-001 4.6225720917914581e-001
      8.5501879661995239e-001 -9.5756254394632079e-001
      6.7748763301619819e-001 -1.2654142996126676e-002
      9.6214921423078525e-002 1.0291525964901496e+000
      3.1126139358402697e-002 1.8195621602030687e-001
      9.2354447881439172e-001 -1.1188352420911130e+000
      -4.2059247658567989e-001 -8.6248493460420539e-001
      -4.3636034688578712e-001 -6.8172093615028750e-001
      -8.3540066520088341e-001 2.7568193634273430e-001
      -1.0182800973084318e+000 -9.0829669663718460e-001
      -3.9983080552320527e-001 1.3608807857514024e-001
      -8.6125896246460687e-001 -6.3665309363741085e-001
      1.7002900793935909e+000 -7.6380237314828048e-001
      -1.1394622626148000e-001 -1.1567791791468729e+000
      -9.4439272570957145e-001 7.0229826886139723e-001
      2.1635071843187794e+000 -4.2012842621948016e-001
      -4.0728725249359671e-001 -3.1584734864672428e+000
      1.4778896680134732e+000 -1.2011257100074832e+000
      2.2083244346058425e-001 -4.1040325088424967e-001
      -3.4342254815297624e-001 9.9935494646654377e-001
      -3.4985606085471038e-001 -5.7519131962040504e-001
      5.8049889030974622e-001 4.9023205895476346e-002
      3.0320671102945018e-001 -3.0079657233282020e-001
      6.2945607889811761e-001 -1.0631705670856531e+000
      -5.5594888927525100e-002 3.7105289640400557e-001
      -7.6102510539149382e-001 -1.1657667868056907e+000
      1.1013341110545098e+000 4.0438591955622649e-001
      2.6234012118884370e-001 1.3597725879763778e-001
      -4.6665448940133181e-001 5.3081327881643281e-001
      1.1621364734654656e+000 6.4787998092291788e-001
      -2.6288499317620066e-002 -1.8743871112414856e-001
      2.4980012617719244e-001 1.2398600130903076e-002
      6.8834396328758263e-002 8.9041347188392614e-002
      -2.4631591245503884e-001 -2.4001684414676325e-001
      -4.7413273682717784e-002 -1.3052351784053276e-001
      -7.8867755783272375e-001 1.6135565908393779e+000
      -1.6565129396613737e-001 4.3429625268172933e-001
      -9.3663796109390596e-001 -2.1438570153308661e-001
      -2.9758547145686914e-001 -5.7594840153195570e-001
      -4.2295713465573981e-002 6.7075507075027396e-001
      -6.7660487868140828e-001 3.0776758698449473e-002
      -4.3115277197561114e-001 2.8523370737546033e-001
      -6.0331649009763810e-001 -3.2716680297081926e-002
      8.7560995070045389e-001 1.0553192045444448e+000
      -5.9247407932850971e-001 -2.7445220243467883e-001
      4.2773891062474600e-001 1.9497717440411251e+000
      6.4613723905103293e-001 -4.3597569221145516e-001
      -1.2382497058130215e+000 -1.7292063880037052e+000
      -4.0982518097469900e-001 -4.4162889383377085e-001
      4.9183706139965927e-001 -3.8367327204761231e-001
      2.0089942420925716e-001 -6.0141721723068509e-001
      -4.8221160498548127e-001 -7.2577993032855348e-001
      7.4289939861747789e-001 2.9710353999184314e-001
      6.6539753349794217e-001 -4.8386504896748395e-001
      -6.1579255953421186e-001 -1.1094431061749377e-001
      2.5742790096988565e-002 5.4049765054907284e-001
      2.1780243059469706e+000 8.6259386730289112e-001
      -3.0048859043534554e-001 -2.8081282010103259e-001
      -9.6144035295318997e-001 -7.2174206197469604e-001
      -1.1116373478498145e+000 3.7991600401405795e-001
      1.6339718773999375e-002 1.1525798149139399e+000
      -1.5711888628575490e+000 -9.4237233752805860e-001
      1.6762534594451286e+000 1.3998551591926947e-001
      4.6033319989289184e-001 1.6768351927326472e-001
      4.9239303085501707e-001 2.2091158850247708e-001
      -1.6108786439051859e+000 -3.7555193718602761e-002
      3.7048938982396673e-001 1.4998892320991173e+000
      -1.5585263053984464e+000 1.7096694928146261e-001
      1.1581202647495195e+000 3.7735758299889754e-001
      8.6269038902712286e-002 2.1137756346150662e+000
      1.2002680508996177e+000 -7.0307254085219406e-001
      -3.9116142869485659e-001 -4.7042641397600893e-001
      5.1121320259346936e-001 8.1549847556925903e-001
      5.5182675764015576e-001 2.2067694283327385e-001
      -3.9870518310852265e-001 2.8728213824063376e-001
      5.7477596452097157e-001 5.9092392986430109e-001
      -2.1073995705179915e-001 -4.1203787797528807e-001
      -9.2972441353667812e-001 5.8263650919844123e-001
      -6.0433223495141253e-001 -3.5252347868058748e-001
      -2.5703835295238542e-001 -6.1625091286897182e-001
      1.9433358861259153e+000 2.5703500110227628e-001
      -1.3008748818265414e+000 -1.3252363453863319e-001
      -6.0330989156016446e-001 -1.0474917108851161e+000
      -8.4620730934807831e-001 3.0652298498070291e-001
      -6.6951633573059194e-002 1.6439654652202301e-001
      8.8206989516493736e-002 1.4125039834807049e+000
      -3.6745096912923375e-001 -5.9831402584846471e-001
      -5.5751312770984718e-001 8.8365250958105435e-002
      -2.1421642075564323e-001 6.9343526608930151e-001
      -4.9994201801940746e-001 4.6940819792824684e-001
      -6.7552245710979925e-002 5.3417898706102163e-001
      8.9530272552282353e-001 -1.2405754273280269e+000
      -6.1755287615372423e-001 7.2940073211733492e-001
      -7.3808129654697552e-001 -6.9562037697197021e-001
      2.6735958221830042e-001 3.2509985687640047e-002
      2.2210537664193859e-002 1.2244152407858683e-001
      -6.4866503923970961e-002 8.3689862367950163e-001
      3.9035643623511929e-001 -5.5226506285755839e-001
      3.6043813137544323e-001 -2.3451475634213473e-001
      2.8341688902223150e-001 1.0153617925271186e+000
      8.7752853094696892e-001 3.7350375693767707e-001
      -1.8970092169233865e-001 -4.1691462233292093e-001
      -1.9299893952612268e-001 -4.7569827198521361e-002
      3.3817847255495659e-001 5.6820467051538072e-002
      -3.5087956351296440e-001 5.6042365496485502e-001
      3.8120831507322611e-001 1.1801349850246341e+000
      2.0341465507716454e+000 1.0805175117071908e-001
      4.0723545676501566e-001 4.7162149182285518e-001
      -1.2105285801177663e+000 2.3385798238062812e+000
      2.3985752534589109e+000 7.9516678894168719e-002
      -2.0415723889951511e+000 -2.8805625111208111e-001
      -2.2679738905319540e+000 -1.5561657193544185e+000
      8.0256983898955719e-003 -3.0844243011834538e-001
      -2.9653554189623499e-001 -2.3377537941604151e-001
      3.2627604836050134e-001 -2.9184177349672900e-002
      -2.6302064367535366e-001 -1.1566533450498784e+000
      4.2605974264196178e-001 5.5977010580098407e-001
      -1.7190647447348317e+000 3.0261748496599616e-001
      -6.4125623043419133e-001 -1.0214551535786214e+000
      -3.5419275376357351e-001 -2.2958133856802124e-001
      3.0074983660727161e-001 -1.4694332415811928e-001
      -3.5976781305278249e-001 -1.6018231233785871e+000
      -1.3533021271394359e+000 -1.6808987031653484e+000
      -6.5081215150052041e-001 -1.2996782597061773e+000
      -7.0882668852779340e-001 -9.4728965431414791e-001
      3.9500463283642691e+000 -2.6198985217727846e+000
      1.1652619113001031e-001 5.2179006397363048e-001
      -1.1192449322523019e+000 -6.4204029810527075e-001
      -3.1037878427267213e-001 -1.0520424875082011e+000
      -1.6219433796870371e+000 -4.7720696054028477e-001
      -2.0059697908116898e+000 -7.8625571189647536e-001
      9.0618295727864695e-001 4.6992262314083244e-001
      1.1986975953248299e-001 -1.4584169119005655e-001
      2.3781389614955559e-002 -2.8683071416000450e-001
      3.3658732352596567e-002 2.0306430588906391e-001
      8.9801911949850088e-001 -1.2861947668002189e+000
      -3.2678517029191356e-001 -1.4494333043224479e+000
      6.3022942240388702e-001 4.8030478250454051e-001
      1.1191663554266231e+000 -5.8440494017672795e-001
      -3.8023217868619752e-001 -1.8559066496387575e-001
      7.2555977500744950e-001 3.8538960428986448e+000
      3.5130899853887709e-001 1.3230363229903315e+000
      4.3783391694145324e-001 1.0352881948150805e+000
      1.6837750368890625e+000 -5.9946932586027554e-002
      -2.0927984320310725e-001 5.0110120261062807e-001
      1.6795620370521661e-001 -7.6079400904366667e-001
      -1.7015110069217378e+000 -9.0550399727057429e-001
      -5.0265454182161229e-001 -1.5491474183531598e-001
      -4.0361871654889087e-001 1.2810277601696192e-003
      1.1978592761201141e-001 6.9369729436420702e-001
      1.8769460057985283e+000 2.3406326621661346e-002
      -3.2627446142720967e-001 -3.4122659372389269e-001
      -3.7888859789711585e-002 4.1653660588329908e-002
      -5.3410670195794252e-001 -1.8148031465247441e-001
      -3.2968472597879833e-001 1.3076924019724245e-001
      -1.0730755252808011e+000 -1.5364903442376587e+000
      -5.5404497896890248e-001 3.0322594973887418e-001
      6.9589483142128761e-001 -7.0796276499022381e-001
      -1.2822669056854741e-001 -1.4339004464667637e+000
      -6.0849412794770430e-001 4.6125569622927998e-001
      1.3301505658997932e+000 -4.4825829467821800e-002
      -8.3931030939673945e-001 -5.8961288337066176e-001
      1.6433968111022844e-002 -3.5613182950575674e-002
      2.7262364705697684e-001 -1.1958726084019226e-001
      -2.4611924559919837e-001 1.6452222015250767e-001
      -4.1406726840248070e-001 -5.3764205760327721e-001
      -6.3583102904819566e-001 5.6842041677613031e-001
      3.0579818897183420e-001 2.7136391683296294e-002
      -2.8263984046373081e-001 2.3913872699827535e-001
      -8.9978758666071829e-002 2.5011595488263388e-001
      6.3537964909424627e-001 -3.2665047759667215e-001
      9.8673368496164093e-002 -1.1609754141111921e+000
      7.0033889391332471e-001 -7.4256315976846710e-001
      -1.5859002217581897e-002 -4.6014625933766162e-001
      4.5284092887213918e-002 3.8769172436217046e-002
      7.2605137315366206e-002 4.3732463441819525e-001
      4.0419094258891708e-001 1.8803245309511055e-001
      -3.3696338640676976e-001 2.3682535513391878e-001
      1.9342871063332914e-001 7.8613265062290028e-001
      -1.6856107037774317e+000 9.9886530265528362e-001
      1.5368377416256435e-001 4.6982875861150303e-001
      -1.0558280876749511e+000 1.8734040626268418e+000
      2.0406665265365559e-001 2.7600268387293694e-002
      -4.9070001007694891e-001 2.7836155145873936e-001
      -2.6290130857575861e-001 2.9464379118015105e-001
      -4.8745806359774918e-001 9.4565713051991107e-001
      -9.6363934918883576e-001 -7.6650891270085203e-002
      4.9320759894533622e-001 1.5462263872278698e-001
      -3.9013146890297340e-001 6.4288763258440451e-001
      -2.7339214246677779e-001 2.1693633259715108e+000
      1.4902715895926526e+000 -1.2905321850560875e-001
      5.2762305157615874e-001 -6.8292883117872594e-001
      -2.4079901732610989e-001 -7.3574011927597704e-001
      6.8412477928574500e-001 5.7078308835316249e-001
      -2.7544432201243657e-001 3.2522353923235969e-001
      -7.0615554995978869e-001 1.1563706203291340e+000
      7.8531871262734432e-001 -2.7873166795270587e-001
      9.0371618743914817e-001 6.4054826860932346e-001
      7.1343707059068362e-001 1.0530777605403980e+000
      -7.9214389551239894e-001 1.7908563575480710e-001
      -1.0628117969717896e+000 1.7225789232551814e-001
      2.8464542574327228e-001 1.5604720243643838e-001
      -4.7132239199763298e-001 -1.2072491373146190e+000
      -1.4176614853114580e-001 -3.4422466822220305e-001
      -7.3878047190165097e-001 -9.3079924419130400e-001
      3.2047912465866280e-001 1.2662651484019656e+000
      2.1217345387903341e+000 4.4349089068239084e-001
      -1.4582709038266441e+000 3.2822604655149391e-002
      -9.7316988427007012e-001 2.9868698465186955e-001
      6.0603329968274233e-001 2.3191781644205940e+000
      -1.1300749871615492e-001 7.8818882858449985e-002
      5.8749842577458555e-001 2.4331643480799561e+000
      3.4524207726412748e-001 2.0881203067770260e-001
      -2.5696936306331136e-001 6.2046262665716730e-002
      -6.4845958239225832e-001 -2.8359662873068631e-001
      -2.2260483947537862e-001 7.5405555664991797e-002
      -6.7913617869661802e-001 -1.8598508672339861e-001
      -1.4640071873337657e-001 -4.1919901057966774e-001
      -3.5444258696962663e-003 5.9914130992870307e-001
      1.2264352887086004e-001 -3.8104925431714920e-001
      2.7133693521443902e-001 1.8225465991879719e-001
      1.5028383729644448e+000 1.1913623781965290e+000
      1.0725334887872875e+000 -4.5755361334457290e-001
      -5.7620869028505028e-001 -4.8285028430908344e-002
      -1.0091850837002594e+000 -5.6830901703249348e-001
      -7.6473047968492214e-001 -1.4490656500841257e+000
      1.1649582873877867e-001 -1.6147748151788316e-001
      -3.3494000066699281e-001 4.7859457117342785e-001
      2.9106477824890120e-001 -7.3844123545389340e-001
      -5.5405683182518017e-001 -1.6077123705227303e+000
      6.2703284181143726e-001 -4.8368952286251410e-001
      -3.2105012680431172e-001 -6.9666616395753045e-001
      4.5902463686247746e-001 2.5117218080173653e-001
      -1.7575365137809547e+000 -2.2491405485991434e-001
      -7.5827048949547379e-002 -5.1964491790575751e-001
      3.8661777204931264e-001 1.2176961009993954e+000
      -2.2699855609855529e-001 -4.5570030475009554e-001
      -6.3519192620969367e-001 1.0174564309163568e-001
      -3.7833029235402327e-001 -5.5595459964764712e-002
      4.9535251658939433e-001 -1.2492018957770634e+000
      7.5229379957590614e-001 2.2260086341962468e-001
      1.7585787839197731e-002 2.3979362364307039e-001
      -2.6196611412613124e-001 -3.1998418768877640e-001
      -1.8952390002369690e-001 -4.2535624519379162e-001
      4.1695788494884711e-001 7.5712934687720734e-001
      -2.7322377118749880e-002 6.7633771448455016e-001
      1.4117595921739035e+000 2.6893753831834222e-001
      1.7086556386824867e-001 -1.4796419687648069e-001
      -3.8321530820785960e-001 7.5959173479500208e-001
      -1.5812957002918913e+000 1.7195259522661738e-002
      -3.4862833802882814e-001 -9.4017265679020412e-002
      -7.1727556754141819e-001 -2.1558842238885054e+000
      1.9561404484938638e+000 3.1619715977359719e-001
      5.3955421937025383e-001 -1.0650931045318570e+000
      1.2310117592995953e-001 -1.9643671988918116e-001
      2.8174115695292490e-001 -8.4601759516741304e-001
      -7.4770592716851503e-001 -8.7697655369587224e-001
      2.3467340373666974e+000 4.0268100883527308e-001
      -8.2765170197836935e-001 2.2291596987572571e-001
      -1.2791448915019097e+000 -1.9676168085928571e+000
      -2.5340389637674715e-001 -1.3220383308533476e-001
      -7.4017414801434933e-001 7.2499151490053326e-001
      4.2883427126679247e-001 1.2243646556247878e+000
      6.1057096022631407e-001 -8.6968395195025672e-001
      -2.6307006312378334e-001 -5.5294057157806553e-001
      6.5118482973405079e-001 1.3382411167780648e+000
      -1.0213836186950893e+000 1.9197982298474833e-001
      -5.2850884753172671e-002 -1.0233488218650315e+000
      -1.6257466529580575e-001 -4.0072460590004183e-001
      6.8540990736398674e-002 1.0649988334666266e-001
      2.6800599503596040e-001 5.5869995374894876e-001
      1.2890956199742596e+000 -1.1252023568875484e+000
      -1.8529673814215042e+000 2.6322151748913991e-001
      -3.4489673854051689e-001 3.9148628167778905e+000
      -1.8392145886402214e+000 -6.9517195811768107e-001
      -1.3890817129162170e+000 -1.6207204726584328e+000
      -1.1302850454774436e+000 -7.2065284355609305e-001
      7.1595300927123490e-002 -1.1746095375982171e+000
      -6.2180010577300115e-001 1.0279967212843066e-001
      -1.7988011293814890e+000 -1.0822688968838725e+000
      -2.1643788810706188e+000 -7.7055755747201393e-001
      2.1636737139887874e+000 -1.1376920090848339e-001
      -2.9315603343803159e-001 7.6853139721679842e-001
      -7.9181342014157552e-001 5.3155638916059858e-002
      -7.4852732219140783e-001 -8.1026126859453262e-001
      -9.6314436563010541e-001 -3.2022294575667618e+000
      3.0793407020132391e-001 -2.7511396036804331e-001
      -1.2277624990045883e+000 3.0389876610457645e+000
      -4.0337770011491508e-001 -8.9772715551700399e-001
      -1.0135711432129246e+000 -3.3508117508438257e-001
      -6.5714918380420251e-001 -9.1580039873113239e-001
      5.6601569407113816e-001 4.7601362749301845e-001
      5.3319177778706672e-001 -1.1044799042195912e+000
      8.3373282788870839e-001 -7.8970782592857014e-001
      7.1308128663792847e-001 -9.8052146564834208e-001
      2.1623636611150601e-001 -6.1500437237243855e-001
      -7.1094627398172516e-001 -2.0740175524999244e-001
      -7.3776963216179670e-001 -2.5004862820467738e-001
      7.8171684155715782e-001 6.2930075385526318e-001
      6.3627794852270592e-001 -4.8555952265728552e-001
      -2.4784484799235444e-002 5.3435793458460246e-001
      -1.6474473751602212e+000 -5.7749042478911694e-001
      -7.9241595738557546e-001 1.0172109763577208e+000
      -2.0855400446170103e-001 -4.8125848629301482e-001
      -8.6732066017889808e-001 8.8179585570295704e-001
      -1.6440495995951945e-002 1.8461049519775317e-002
      3.3344113985969953e-001 -9.6010953456787262e-001
      5.8467912039152092e-001 -4.9303552757203289e-001
      -4.7570923240453095e-001 2.7298543439318018e-001
      -7.0626328283728468e-001 2.8085519755984267e-001
      -2.7723424961446325e-001 8.9845492343567268e-001
      -2.8811338677003723e-001 3.2300734324805669e-001
      -4.6939726853553465e-001 -5.7107818339857774e-001
      -1.8795943529078072e+000 -5.8286554049584938e-001
      1.7597244838088695e+000 -6.7344255232799022e-001
      5.3028539512704731e-001 -1.0809019167588352e+000
      -8.5082460773382285e-001 -1.3211920748442927e+000
      -6.3805954067219506e-001 -2.2396853302530104e+000
      -1.7723422784592284e+000 -6.1938597822992270e-001
      -1.0679733357728709e+000 -2.1050405701589829e+000
      -1.5407928273751337e+000 -8.4308816001255749e-001
      -1.3541236846384059e+000 7.4664773968775772e-002
      9.2541491942829879e-001 1.3084299158596435e+000
      3.0394974467447072e-001 -3.0170016553162721e-001
      3.5254454309198252e-001 -8.9607663632390844e-001
      3.8910009195235706e-001 2.0140800737187479e+000
      9.9507374526642808e-002 1.6341435679075020e-002
      -3.0203670748234577e-002 8.6823963092945933e-001
      -2.3713686423912875e-001 7.6553336384454801e-002
      -6.6846316481046597e-001 -7.7723268770718931e-002
      -5.6283546738387680e-001 9.1058887595019533e-001
      2.4505446899323107e+000 -2.8479212894057748e-001
      -4.9407569397030737e-001 -2.4133551302683567e-001
      3.4408345531006312e-001 -1.5783147813564751e+000
      9.5838881729021372e-002 -4.7133002100704058e-001
      -2.9433950201845077e-001 -1.7278035622393582e+000
      -1.2309004971571933e+000 -6.7380399059215434e-001
      -4.2056085727693218e-002 -3.8464924637821446e-001
      1.0990434413654127e-001 1.8679598841407163e-001
      -5.0658736074776511e-001 -8.8058792121480517e-002
      -1.6852977072587161e-001 9.2297849131692145e-002
      -2.1142748319535351e-001 -9.3143721941891133e-001
      6.4753094593840899e-001 2.7342600230490766e-001
      -1.7565452127190986e-001 1.6105041869175920e+000
      1.5409405025720682e-001 -3.3625958910362264e-001
      -2.9727224525150642e-001 3.2173762330866620e-002
      2.8921362475888779e-001 7.6377835384182846e-001
      -4.0496850549681751e-001 -4.6434889690997699e-001
      -6.0991987819395022e-001 3.6461278580549772e-001
      5.7488609780013045e-001 -5.5190245214901557e-001
      5.3679249482132740e-001 2.2555620734720042e-001
      1.4445405520508839e-001 -2.7557755587501589e+000
      -1.7124105947609767e+000 -2.7104722569172784e-001
      -4.6120012129895038e-001 -8.6874733408809479e-001
      2.5346134444641062e+000 -4.7405459645550102e-001
      -7.6532097512066588e-001 -2.0136745243533949e+000
      1.4128554250211300e-001 -7.5126449951304863e-001
      -1.8122696815688797e+000 -2.8107632824005024e-001
      1.6058354628037024e+000 -5.3744720908966981e-001
      -1.2420277655603957e+000 8.0468678450547038e-001
      -6.7467038368940613e-001 4.0588901558391849e-001
      1.0520505411864614e+000 -9.9857958135545077e-001
      -1.0199957439978256e+000 -3.0710909995868538e-002
      1.1547693894985214e-001 -6.4686552441728695e-001
      -3.5096051193512434e-001 2.3350879784222633e-001
      2.3117135735156624e-001 -6.3277563936313666e-003
      1.0032788036721734e+000 -1.1485652892043099e+000
      2.8182025390766186e-001 7.1588173702865965e-002
      -2.5637938667653981e-001 -3.6347595170865588e-001
      4.2472172903536037e-001 -1.8454933490407871e-001
      1.0321079536287141e-001 1.2149264547519769e+000
      -9.0193222641102033e-001 -4.2062883300153453e-001
      3.3663764415322356e-001 -5.0199312451785494e-001
      3.3209103585922093e+000 -3.8245398783470275e-001
      -8.7327245151213054e-002 8.3659226936245057e-001
      -7.8694188145339583e-001 -1.0666914454318881e+000
      1.5197724544562268e+000 7.7044218915514140e-001
      -2.4952245691383698e-001 -6.9463752204345497e-001
      -1.2715046092782487e+000 1.6829301226381216e-001
      5.7723977547108973e-001 -1.8473731472173491e-001
      -5.8901386304656217e-002 6.7615774960704278e-001
      1.8777350071898169e-001 -4.5521057808271037e-001
      2.6922199843168881e-001 -1.6159888761218273e+000
      9.5941965869262708e-002 1.2396244976180318e-002
      -3.8364220596514576e-001 1.3363324667549029e-001
      -4.4343723028163579e-001 1.7841312250607542e+000
      -9.2545656736330606e-001 -4.6506706281573956e-001
      1.4747946640712892e-001 7.5788173515695834e-001
      2.8107526107363850e-001 -2.1933540849914390e-001
      -9.4071957840721043e-001 7.3939379045325881e-002
      -6.5117568437049822e-001 2.9450617566927184e-001
      4.3611343776874323e-001 1.4358150531422567e+000
      5.8781238241475164e-001 1.7787724692775204e+000
      5.0280138851879963e-001 1.7298705314363656e+000
      9.1681014003136418e-001 1.4544705341330215e+000
      1.0804949836134486e-001 -1.0731863586768045e+000
      1.6213549154456868e+000 7.9081541694786717e-001
      2.3367695520062650e+000 -1.2931420614119099e-001
      -5.7107857080213167e-002 8.4417158987829632e-001
      8.1743007618634983e-002 1.7757032489909244e+000
      -5.3683397563377511e-001 7.8277560445345368e-002
      1.9934338519549052e-001 4.5523087260697276e-001
      1.0787763430849580e+000 7.5885881278163458e-001
      5.1849489971177454e-001 -1.1838243333263655e-001
      -5.9081513907680794e-002 3.1218370785376259e-001
      6.4063240483850947e-001 -7.0287551123139946e-002
      -1.3183435387022850e+000 4.0205606410167259e-002
      -4.9955778066289126e-002 -6.0696932330990894e-001
      -3.8544126172064835e-001 7.4230741792995503e-001
      1.3022051755409877e-001 6.0286166526074370e-001
      1.3985549418668479e+000 2.3775835153355135e-001
      -6.6092636387791137e-001 -1.0220298039870319e+000
      1.2348201214708650e-001 -4.0141056776752587e-001
      1.3660961294946403e-001 -4.4974575515014370e-001
      -4.8024604696097756e-001 -1.5325555449960471e-001
      7.8096294112934922e-002 -7.7522385947541494e-001
      1.1916483669170863e+000 -2.2825301785181606e-001
      2.5791428736896277e-001 -6.7786485340038860e-001
      9.5327331502812884e-001 -9.2031528209452360e-002
      4.9611569351294488e-001 -5.2938563257450555e-001
      -7.7352879899394789e-001 9.0729094304229985e-002
      -8.4203741282070765e-001 5.1433424310388942e-001
      7.4245516291570246e-001 3.1582039533712469e-001
      3.9989528011557474e-001 -1.5276171864647015e-001
      2.4283921255636945e-001 -2.2251065421222527e-001
      4.3117909872293463e-002 -2.2461149234689443e-001
      -9.9058732439890121e-003 1.0442400187677181e-001
      1.6764980942198882e-001 1.5444944307561352e+000
      2.1534536059520328e+000 7.0095756122291131e-001
      1.2321872639142251e+000 -5.7400182843945646e-001
      -2.5441287320581463e-001 1.0465325310765394e-001
      4.3023630430268506e-001 1.3555294395053200e-001
      4.5499513667109642e-001 5.0556509298081354e-001
      -4.0489943206316181e-001 2.9040858298788286e-001
      -5.3603472702163624e-001 -3.5862856908367685e-001
      6.2655949406601585e-001 2.0913185203971931e+000
      5.5540652423251768e-001 2.3988143169732606e-001
      1.0812753858593440e+000 -9.2065560855304707e-001
      6.1963578057597091e-001 4.3991539564414470e-002
      1.7924889220003588e+000 -1.8003827941785627e-001
      3.9231424108616664e-001 6.7622700046002771e-001
      1.2263385802100160e-001 -6.1130571843322712e-001
      -4.4566981144992979e-001 6.7452567623955728e-001
      -2.8367998416332304e-002 1.4739622558603158e-001
      -2.7153783724494468e-001 -4.4838581394183508e-002
      1.1305578941577656e+000 -3.5560223611105102e-001
      4.4448854749407612e-001 -2.2179763225567600e-001
      -2.6727280744112580e-002 1.8140072987232547e+000
      6.5082668423317624e-001 -2.3270972678353979e-001
      2.2754151601527531e-001 7.7105234729027450e-001
      -1.0791167101109052e-001 -8.2822140573721437e-001
      5.8870704565092302e-001 3.3489234673974666e-001
      5.6512734959716360e-001 -2.6761049859564984e-002
      8.2642894032858194e-001 -1.6410946436841950e-001
      9.9350597861235040e-002 3.0865714789893178e-001
      2.1012331443274035e+000 4.1315244489829267e-001
      1.8898605886093739e-001 -7.0392731792026797e-001
      -4.7745061547168277e-001 -1.3869221009205550e+000
      -2.8014430393198214e-001 -2.8393969540730074e-001
      2.4768187114453428e+000 -3.9554396541798965e-002
      1.4329535577741439e+000 1.1232345005200146e+000
      -5.8916971669396667e-001 -5.4318536179617916e-001
      7.0135507362456984e-001 -1.0019712861433741e+000
      -1.6792296578970922e-001 -2.7784262290128553e-001
      -4.8856264267148225e-001 -2.3546552950633995e-001
      -1.3679990092578032e-001 -1.3527739900897773e+000
      3.5013069073356257e-001 2.4258860437362625e-001
      -1.0117892503988544e+000 1.9386702291193419e-002
      -1.6168103270697516e+000 -6.1761290464962859e-001
      9.3508798930687087e-001 1.4934523952036238e-001
      -4.6413511882977226e-001 2.2365840410935531e-001
      3.4350514396273552e-001 5.9817884024556778e-001
      4.6992465079700096e-001 -5.4565841571018081e-001
      8.4234858878805019e-001 -3.1539714885689329e-001
      3.0535313758957744e-001 -4.9164780172112982e-001
      -7.1650485673304376e-001 -1.9132264861335779e-001
      -8.3141434650358437e-001 -4.8445314276865453e-001
      -5.3675185008969430e-002 3.4849134011886822e-002
      -7.2240995952502374e-001 1.3817536640922864e-001
      1.6174008055320677e-001 -4.2449056152929515e-001
      -4.2199927931604514e-001 -4.4306863923332962e-001
      4.7179466153741556e-001 6.4548131229234573e-001
      -1.2347497181183939e-001 5.2452052537239491e-001
      2.5558597584764448e-001 -4.8478242449986664e-001
      1.7967338925269194e-001 -8.4857398719972027e-002
      3.3268506017618465e-001 1.2515062848295793e+000
      -6.0894532329080198e-001 -8.0142269250205404e-003
      7.5269563657677385e-001 5.7510105849676674e-001
      5.4825579870425467e-002 5.8448674510914700e-001
      8.8280863709204516e-002 -1.1830674495742614e-001
      2.4986139301360030e-001 4.6978572702704238e-002
      1.6717009923739572e+000 -5.3278433899561572e-001
      2.6198794990385110e-001 8.0549208342710987e-001
      2.6885431703743162e-001 4.8683020059535603e-001
      3.1235901870288080e-001 4.4315713678396107e-001
      -2.9303898572172509e-002 -7.3234521718380763e-001
      -5.7579079272143019e-001 -4.8855979693577056e-001
      1.2590561929967623e+000 3.5257951689640016e-001
      9.8961841107632009e-001 9.3998863060572213e-001
      -1.2406355473978254e+000 9.7515090802333296e-002
      -1.6271768814562890e-001 6.4282548265246420e-001
      -4.8957325623954256e-001 8.9055739258428002e-001
      4.3368949099483500e-001 2.7427422174708338e-001
      4.7559902346490807e-001 1.3452183463837078e-001
      1.6398129045483820e-001 -2.5391255490366893e-001
      -1.4514106955485400e+000 -1.8898913199111800e-001
      1.2029120373105449e+000 3.7656083253708744e-001
      -4.3939326818511598e-001 6.5205036338535671e-001
      -7.1334782370131772e-002 -3.9767627914264936e-001
      -6.4286695790052228e-001 1.4654732052509731e+000
      3.1531701209927726e-001 -7.3460150258792023e-001
      6.2847865170014094e-001 1.0983023393868736e+000
      -1.3089364956237229e-001 -1.6018659068350878e-002
      -8.1666016802239394e-001 -9.0409302035375594e-001
      -1.0432276402857291e-001 -3.8059895863486309e-001
      -7.5425090754563184e-001 -3.1481905975702268e-001
      6.0830692313083912e-002 -1.4113539584919783e+000
      8.0819272370988904e-001 8.3424966479471896e-001
      5.0544162932658221e-001 -3.8649164263750890e-001
      -2.6779511544130868e-001 1.1987541604165079e-001
      -2.5139968028395265e-001 2.9835061092275761e+000
      1.3758866457964634e+000 1.3705798699200486e-001
      -2.1833150997256212e-001 4.5317960025370439e-002
      1.3039333423203985e+000 -3.4810796140701600e-001
      6.9246896733047480e-001 -2.2567800477186087e-001
      2.4316379660057738e-001 -1.4567850236061244e-002
      -6.1046647012869149e-001 -4.7687700104337166e-001
      -1.1579149964339663e+000 -6.9689519715711423e-001
      1.0744508295627975e+000 -2.5460483304042592e-001
      -7.5239108351861594e-002 -2.6940327459098506e-001
      1.9011026297768560e-001 7.9727430683745582e-001
      -3.1944333450797535e-001 -1.3861252101405876e+000
      3.0071661995383012e-002 -1.0023140348011474e-001
      -1.3174966317187100e+000 -1.1617784912080011e+000
      -1.0585504678428728e+000 -5.6931796613060925e-001
      -9.8250871015462329e-002 8.4562062289171380e-001
      3.7035093024556205e+000 -8.6455805722354895e-001
      -2.8815358728262899e+000 2.6910280206644716e-001
      -1.0912420697812393e+000 -7.9082214289175490e-001
      -2.4147445444373103e-001 -1.2955882903868761e+000
      2.9323534899155118e-001 3.2212027692003806e-002
      -1.3431332471563266e+000 -1.3112718307160289e+000
      1.7229770806416600e+000 4.1224212057428017e-001
      -6.6763427216122007e-001 -5.7193907601696659e-001
      -8.9589736223300553e-001 -7.4700790125266803e-001
      7.7409024427059137e-001 -2.3743791008833365e-001
      -4.2351293228205335e-002 -4.2931696840983846e-001
      -9.5016602116448690e-001 5.2284619145204791e-001
      -2.0731148107114228e+000 -3.5639648237122945e-001
      -1.6655500245376555e+000 3.0157767661036297e+000
      -1.2869484172786985e+000 3.0678167662785489e-002
      7.6578276168418932e-002 3.2002971297460014e-001
      9.1073580353215910e-001 6.5807253444098934e-001
      7.2202306629346868e-001 -5.7099679054135877e-001
      -2.3263432301581241e-001 7.1544699011318236e-001
      5.1955804072060541e-001 2.7174191760288992e-002
      -1.4014887404564008e-001 1.2579290371416474e-001
      -1.1834086439719178e+000 -8.8472227739465870e-001
      3.4790958102135228e-001 -9.2133603821628018e-001
      -2.1052647694565779e-001 3.0839320173903797e+000
      1.1697039579000417e+000 -1.7408161897465940e-001
      -1.7436118615690646e-001 -6.3097993197579666e-002
      6.6561858363717497e-001 -4.6014717492098273e-001
      6.6176111807422411e-001 -3.5952033231752373e-001
      1.2736022995565843e-001 8.2794743465736106e-002
      8.1172140795980852e-001 1.6804714954132136e+000
      7.9812129666375775e-001 9.1015819053529146e-001
      5.8108995058136403e-001 1.7876768695760631e-002
      3.7683725171160698e-001 -3.8321674907755560e-001
      -1.1637377671676619e+000 1.5783632397828642e-001
      3.5492607122681330e-001 6.4037615703661266e-001
      1.2132148628281023e+000 5.5802869812216893e-001
      9.0472588260490802e-002 1.7028686255059663e-001
      1.4675486675962401e-001 -8.8836326249644704e-001
      4.9299987369709336e-001 -1.3755517858759969e-001
      -9.4394432729908473e-001 -1.2885928823982535e+000
      9.8357744163174651e-002 1.7983970175610808e+000
      -6.9698719494240302e-001 -4.8210730554270309e-001
      -2.5148275576078921e-001 -1.5142130791889177e+000
      2.2085875624352731e+000 1.3400768020115434e+000
      6.2394627689371462e-001 -7.2966831585125647e-001
      -4.2614115805003827e-001 -3.1626208123576487e+000
      4.6872011580873472e-002 -5.2234688339833535e-001
      3.1325561529561224e-001 5.1523779139949488e-001
      -2.3901504848858715e-001 -4.7884537561649176e-002
      -3.5589973664783114e-001 1.0567117283018048e+000
      8.0878403212124739e-001 1.1251544075082345e+000
      1.8539525538792898e+000 3.2411294209588876e-001
      6.6652193432657025e-001 1.4759440942385377e-001
      4.8172848179224048e-001 -6.1552568728233337e-001
      -3.1181943661150108e-001 -2.8558362948580041e-001
      -8.7407652798793323e-001 1.0580373439446880e+000
      -5.7848691035471556e-001 6.0352672831354404e-001
      6.9675796503300835e-001 2.9764302282102517e-001
      5.8919724863679981e-002 1.0493938667501710e+000
      4.1236542949030286e-001 1.8039676649474410e+000
      -4.3310375248849869e-001 -1.6755322603757434e+000
      -1.4805442001206209e-001 -1.0393167625580159e-002
      6.9968330399997947e-001 -2.1546799244371413e+000
      -2.0983848095739535e-001 3.3899286444357318e-001
      1.4096565537943799e+000 -3.1936599308985181e-002
      -1.2065928476504939e+000 -1.3927898176103914e+000
      1.8298265879294009e-001 7.7317155095509416e-001
      -2.7552092952681850e-001 -2.0728124117327393e-001
      -1.0698395414873771e+000 5.5256208613146141e-001
      4.2511770692417192e-003 -4.0324589518144532e-001
      -5.2955247131863525e-001 -7.3636449980931176e-002
      9.2264077384778087e-001 -1.5645547031786533e-001
      7.8232351350422846e-001 -1.9477767908166366e-001
      3.5603670450882108e-001 1.5501999071903039e+000
      1.3202481723121269e+000 1.2048143500778091e-001
      -7.0510302532119506e-001 4.3917866096592384e-001
      -5.0003518621093734e-001 2.5450463716951249e-001
      6.1377316928786185e-001 4.6166019017343080e-001
      7.6868958102916851e-001 -4.9227368731205139e-002
      -6.8440727605421547e-001 -9.2855058223630726e-001
      1.7007191061887625e-001 -1.4079743406651460e-002
      -3.0616618744961194e-001 3.6020282485843835e-001
      -9.3386154878998406e-001 -3.6963654780382893e-001
      -8.2595370221137054e-002 -5.3036315459888361e-001
      1.7707694197888206e+000 -4.3365593349914622e-001
      -3.8544642930576672e-001 -1.2790035209807138e+000
      -1.0695875444055825e+000 -1.8551545619434734e-001
      7.7176896852828947e-001 -3.4739309932127649e-001
      -4.1486042813512047e-001 -1.7319468818691508e-001
      1.8744926719651904e+000 1.5771510667655222e+000
      5.8761811069935770e-002 -1.0863736996117830e+000
      -4.5158617280128616e-001 -2.7265412175966308e-001
      -9.5899816098648438e-001 1.1184622355015434e+000
      3.7351242864921480e-001 1.3593949976961046e+000
      -1.2367792084465064e-001 -5.8017480005210453e-001
      8.5387635583137089e-001 1.8352802326336509e-001
      3.7616810007137471e+000 1.0905399731415751e-001
      -1.2008219744947668e+000 -9.0603524580222861e-001
      -6.0215894708680762e-001 1.4538224008249874e+000
      -9.7474012306140101e-001 1.8896199550384503e+000
      5.2458815912445822e-001 -1.2922682589488169e-001
      5.1536810652376064e-001 -1.2290297820288614e+000
      3.9578068232312602e-001 -1.5492593930773757e-001
      1.9605428708518577e-001 -2.7323169241838134e+000
      2.4464644223923640e-001 5.0594118159629009e-001
      -1.6068057261242794e+000 -9.5551208956591904e-001
      -4.9202701763894358e-001 -9.2417654133277394e-001
      6.5740796467995388e-001 -8.8440337612219089e-001
      -6.5293872810249998e-001 -6.3280640185379411e-001
      1.7834396321121524e+000 -2.4382646436645192e+000
      -7.0237936728690953e-001 2.8870008939139793e+000
      4.9988729323858017e-001 -1.0319667920526794e+000
      2.7616325505065809e-001 5.3619778570632448e-001
      -1.4897711320931528e+000 1.7185690088999361e-001
      -1.3075722970179346e+000 -9.6460307006145041e-001
      -3.6745087093159684e-001 1.9984110697564903e+000
      -5.8414500150251392e-001 -1.2320231404946083e+000
      -1.9125880165809889e-001 -1.2709077588716566e+000
      -5.4839439664193979e-001 -1.0884704292652456e+000
      -7.7766244422143094e-001 -6.1139313569725118e-001
      2.1087910261504650e+000 -1.9660810033107426e-001
      -2.4540297119761516e+000 -2.8589243105764839e-001
      5.0493009018743928e-001 -6.6490876531644205e-001
      7.4619257358564062e-002 2.0616967620248305e-001
      -2.8135006493498431e+000 -9.8955809238477910e-001
      -2.2528872271769432e-001 -3.3770384515451690e-001
      -5.3377200074365772e-001 2.9043866114826178e-001
      1.0083603737270592e+000 -5.0561587569367916e-001
      6.2153300084847685e-001 -2.0702110573063257e-001
      3.4638854105282224e-001 -1.8366357698626282e-001
      -6.0479973377601137e-001 2.7358396503094334e-001
      -4.7932014715380489e-001 -4.1424244718570417e-002
      -7.9955416872460305e-001 1.1240819819849810e+000
      7.9872006123858003e-002 6.0569220798778162e-002
      1.2094088305385130e-001 -6.8109974032974063e-001
      2.0840333682612927e-001 5.6254115580955422e-001
      -8.1789817866795533e-001 7.4131549313577116e-001
      -6.9467649053286928e-001 -3.6046168895211872e-001
      3.1567037860147544e+000 -1.0418756725684595e+000
      -8.3368239215604018e-002 7.7152961801682640e-001
      -9.2049346011280408e-001 -5.8517796458081750e-001
      -6.2703525482218769e-001 -2.3859723346747250e-001
      2.2392975577997398e-001 -3.7756164949627985e-001
      -1.9461407146815959e-001 4.4754131061752622e-001
      -1.4832289166042273e-001 -6.7020435776905729e-001
      3.1138787311675392e-001 -8.1940351475996132e-001
      3.1507796339569349e-001 -3.0337062314638180e-001
      -7.3536507971010800e-001 4.4237588682129531e-001
      -6.3275155280293716e-001 -2.8422565957932905e-001
      3.4740260076665092e-001 -3.6267945767991200e-001
      -1.2428726641317915e+000 6.1833184873865320e-002
      -9.6334152336718448e-001 -7.4310501706991727e-001
      1.8375596611751735e-001 6.5283915829125594e-001
      -7.3629318609091621e-001 1.2364096747922402e+000
      6.7570299750375562e-001 5.6146493780885237e-002
      5.9927957115633068e-001 -8.9176515433510323e-002
      8.0536906509147477e-001 1.3056008859299828e+000
      5.6454064898255329e-002 1.3641680649297944e-001
      -2.4341251769223177e-001 -1.3766361607173311e-001
      -1.9217703546763931e-001 6.2094897202512755e-001
      1.3340734689666218e+000 1.8917565224439206e-001
      -2.7539547456575639e-002 -1.2361531501695508e-001
      1.5532041311010676e+000 -2.3966151736250907e-001
      4.5002769049434910e-001 1.1900755665499628e-001
      1.0813431163905565e-002 7.2227771159622187e-002
      4.7679908664950499e-001 1.2751059848828117e+000
      1.8179906940336721e-001 5.6729273381066780e-001
      -5.9054467619804464e-002 -9.9521750479491133e-002
      4.4483022356806656e-001 -4.5876381449828452e-001
      -1.7846744524835173e-001 5.4596739870351296e-001
      -8.9900208141927662e-001 -7.6652268791080808e-002
      -8.7987919888120891e-001 2.4059527817178648e+000
      -4.8389608170356491e-001 2.1999232818811487e-001
      1.4451949495673300e+000 1.0386444823205401e-001
      3.2664679998324042e-001 -3.6046864658674499e-001
      6.9765736811083123e-001 4.2109338915006167e-001
      -2.4348055774702882e-002 -1.2410602144974672e-001
      -1.0773753569092286e+000 -1.1201109164613936e+000
      -2.0768161931956333e-001 -4.9868980768773247e-002
      3.3553237855115403e-001 -7.0631282292632352e-002
      -3.8377016842367673e-001 3.1056339528035032e-001
      -3.3736733589476181e-001 -1.7085633965338470e-001
      4.7366562934204004e-001 1.0432166370368483e+000
      1.2461846543183588e-001 -1.2168052979910681e-002
      -4.6492782247046155e-001 7.6033814844863734e-001
      3.0132408370605983e-003 -2.3170995828703597e-001
      1.4054394577889950e+000 7.1128352677785056e-001
      -8.4935135001353190e-001 2.5294144602340252e-001
      -1.5348995231656007e-001 -7.1521845410239837e-001
      -8.4437796171569532e-002 9.3020034084423620e-001
      -9.6668660951214361e-002 1.0039390165443063e+000
      -5.7837702738282326e-001 4.7845287183255064e-002
      -6.4144069354606448e-001 -3.3163897030103900e-001
      7.3716587927697441e-001 -6.5229631749966299e-001
      1.0013222343640751e+000 -1.8804877038761494e-001
      9.6681534737265329e-001 3.2891364514658178e-001
      6.4131030318286297e-001 -2.4685700677947015e-001
      -1.4900328372227243e+000 -2.9100140918907075e-001
      -7.0830563279749148e-001 -2.9601423402374172e-001
      -9.8001698737653831e-001 2.4126784387696696e+000
      -2.8684452986071884e-001 1.0832153972542726e+000
      -3.9228950319590383e-001 -2.5722618748036474e+000
      -4.6223815892450859e-001 -2.3200572033036707e-001
      5.2201736584706326e-001 6.7587896678739390e-001
      -8.4528536555381520e-002 -9.3198742365711373e-001
      8.3513730169457545e-001 -5.7546139433400390e-001
      -2.9048025855765763e-001 6.5990580832820567e-001
      9.3116763273177627e-001 -2.4124131101220650e-002
      6.8443294871603255e-001 -2.7941194454150775e-001
      1.1459419544647094e+000 3.3607818930695821e-001
      -1.5881184839105385e-002 -2.8532554920700785e-002
      1.2853895430212430e+000 -6.1583835959917543e-001
      1.5046746940750053e+000 3.8950585009790539e-001
      1.0393501700582788e+000 -5.3885708268709998e-001
      6.3574976590740724e-003 7.9435840949155026e-002
      4.8955358116508063e-001 -6.9510029522475980e-001
      2.5931297301860601e-001 8.6767434167659208e-001
      4.1809732790117476e-001 4.4253579443439828e-001
      -7.9609546160013644e-001 -3.7274164362025947e-001
      3.5928890958984444e-001 8.4595665107366458e-001
      -2.1757015415158246e-001 -1.7810105089966341e-001
      -4.7788264655009148e-002 -7.8273148468239639e-001
      9.4979480634796309e-001 7.7608724992498035e-001
      9.3879056368714342e-001 8.1971630680023722e-001
      8.4650387013758188e-001 -1.1239880848392782e-001
      2.6458241244336717e-001 4.8007078102554557e-001
      -3.6576907719382373e-001 -7.6244898640366954e-001
      3.2261516662763307e-001 -3.4739277553465658e-001
      -7.2297227964524882e-002 1.9333461331052912e-001
      3.4781548239041371e-001 5.8563963196941748e-001
      7.9603340287407298e-001 -3.2340361532024686e-001
      -1.9349800431862219e+000 1.1788343267009647e+000
      8.6043995913813875e-001 -2.3190782478082364e-001
      7.5031231762453110e-001 5.9805517341340164e-001
      2.8872800636180634e-001 1.3573576854982974e-001
      -1.0316126177460689e+000 -9.0801591444162744e-001
      1.1585785114243468e+000 -9.5031486208101068e-001
      4.0085742635556099e-001 -6.8170036162338118e-002
      -1.2261889914494903e-001 4.5232283608011341e-002
      3.5841715442540617e-001 -7.8596657234099110e-001
      -1.5154628961002286e+000 5.2779376593219796e-001
      -6.0014224142116468e-001 2.4645424584656035e-002
      -1.1639109513292276e+000 1.3113535455274855e-001
      -1.4476959281225674e+000 2.2386881051638983e+000
      8.3644101806343796e-001 -7.5183442461931327e-001
      -1.2267679875753783e+000 -2.0421903412498756e+000
      -1.4503539174274588e-001 -5.1965420227617987e-001
      -9.0204109275542188e-001 2.8236912131825109e+000
      4.6028406572671188e-001 -6.5670247924787983e-001
      -2.9431117542645868e-001 -2.3592074083333174e+000
      4.8372604413840686e-001 -4.0138112768973200e-001
      -7.3970788937212661e-001 2.0139468597184451e+000
      -3.1537655894022304e-001 -1.8645368999038892e-001
      3.6002398183075257e-001 -1.1292500026718348e+000
      -7.1088237802180809e-001 4.0599180425684617e-001
      4.9844993085928774e-001 -1.2042520620215382e+000
      -6.8247020963728555e-001 1.0945451096774022e+000
      -4.3997846918590017e-001 -1.5856914319855393e+000
      9.6718683109759884e-001 -5.8694266399671779e-001
      -1.8297935984370305e-002 -6.1171182738369811e-001
      2.3783478574956862e-001 4.0637584923790798e-001
      -8.3930551145024757e-001 -8.6304566208511302e-001
      -5.2016637225403228e-001 -4.4714690760053333e-001
      2.5681446487101001e-001 9.4394163029377276e-001
      7.5481352328287310e-001 3.1425527425867233e-001
      -6.7256454726709936e-001 6.9255479157637911e-001
      1.8574363625164358e-001 4.1741611315532884e-001
      2.1731247491711128e-001 2.5389434252473986e-001
      -4.5815346775053767e-001 -3.8374640093929430e-001
      -8.7133615922198560e-001 -1.9029724258065761e+000
      1.6210016832720477e+000 -4.5033909698199687e-001
      3.1504919386827185e-001 1.3392369264540691e+000
      7.2709897687021141e-001 -8.9844904692469169e-002
      1.7475827586186515e-001 -1.7963867081438114e+000
      -1.1789225376760518e-001 1.6323185049363226e-001
      -4.6979435226772820e-001 1.3362633848752446e-002
      2.4126874508638294e+000 -6.7854048921217303e-001
      -6.3480529959293253e-001 -1.0751409982348574e+000
      -2.4040124275323882e-001 4.0634722591020722e-001
      -1.8014482915966639e+000 -1.3395272678368026e+000
      -4.3324267288063267e-001 -2.6770676574030433e-001
      -1.3632670145962380e+000 -1.3743413336994885e+000
      -5.5031280337626420e-001 -1.2154732893478394e-001
      -8.8013246831889802e-001 -1.8571039557696431e-001
      2.7353266184687969e-001 -5.4859012723673661e-001
      -1.2656738299787624e+000 2.8358420896452441e-001
      -5.1510298990533797e-002 -9.5720790610331463e-001
      -2.2197544117081194e-001 -6.3468746559282030e-001
      6.6527903267915722e-001 -6.5228848001294248e-001
      -1.0307169056027066e-001 -1.0205318782386907e+000
      1.7767892052447045e+000 1.6214333810479886e-001
      -9.9058305061977370e-001 8.6541172323600410e-002
      4.4842154134122281e-001 -8.8088094091001068e-001
      -1.2791109698790079e-001 8.8493509027284656e-001
      -3.8807821630115874e-001 3.3461904419744426e-001
      -1.6174480749674143e+000 -7.1985276531854125e-001
      -6.7016602937843572e-001 -6.7457130962706918e-002
      6.4795658524460531e-001 -3.1101794184134146e-001
      4.7444741346560149e-001 -3.6053789600443625e-001
      -2.2226467554751967e+000 -8.0630487311180887e-002
      -6.6482590240557235e-002 -5.8678160686383242e-002
      -7.9262475828921186e-001 -9.3116490235084604e-001
      -2.4207387174332577e+000 -8.0154738025086977e-002
      1.4059481553401845e-001 1.2277211508906935e-001
      -9.9985074201648505e-001 6.4141242010712007e-001
      -1.0481521776905764e+000 -1.0231191267819850e+000
      -1.7549112587429230e-001 6.4189848609233768e-001
      1.1334141129967827e+000 3.7737167035208302e-001
      -9.0331723517459461e-001 1.6659844710657394e-002
      -1.0339019566551955e-001 2.2221792104153248e-001
      9.1551984055070390e-001 2.1573813581398107e-002
      -1.7305118946758480e+000 5.7720260430931403e-001
      2.1664537164860834e-001 1.2283568835739180e-001
      1.2011667385784199e+000 1.3826178227483725e+000
      -1.1311353695047730e+000 1.2908035046529964e-001
      1.9982408398925000e+000 -1.8621581286060698e+000
      4.5232343317187307e-001 -7.3111754972635923e-001
      1.6083392581876732e-001 -1.4301300294626023e+000
      -7.1576451058988178e-001 -8.4604554957712952e-001
      4.0803948251879146e-001 -3.7599051857165022e-001
      -9.1827844148892768e-001 -1.0314553867773644e+000
      3.1317954597678617e-002 -5.3702366406227539e-002
      7.8067868449258970e-001 -2.5231213817402581e-001
      -8.7073291729749494e-002 -1.0073262201087554e-001
      -1.2806409452051462e-001 1.3286764272624671e-001
